tree
version=v4
num_class=1
num_tree_per_iteration=1
label_index=0
max_feature_idx=10
objective=binary sigmoid:1
feature_names=Age Tenure Balance NumOfProducts HasCrCard IsActiveMember EstimatedSalary Monthly_Income CreditScore EMI_Amount Sentiment_Score
feature_infos=[-1.7058836426101136:1.7004792191443745] [-1.6514818919820533:1.6570037545260756] [-1.7275693740858575:1.7330766860235924] [-1.3441227502436464:1.3374367286097053] [0:1] [0:1] [-1.7384423216471936:1.7322402122545126] [-1.7384423597538945:1.7322400194551315] [-1.7221993933581357:1.7257888640670576] [-1.2273232161422909:3.7578148126194275] [-1.5834715410769964:1.0117888825562948]
tree_sizes=3421 3462 3456 3461 3462 3456 3475 3468 3459 3451 3476 3488 3483 3486 3483 3479 3491 3439 3456 3477 3481 3489 3490 3486 3479 3481 3504 3485 3488 3476 3496 3477 3488 3503 3476 3483 3509 3487 3502 3478 3490 3473 3489 3501 3469 3475 3510 3498 3487 3481 3487 3480 3509 3484 3466 3486 3474 3497 3471 3486 3469 3492 3490 3485 3491 3498 3474 3499 3479 3501 3494 3501 3503 3493 3509 3486 3497 3505 3481 3487 3492 3498 3477 3505 3477 3486 3500 3512 3498 3519 3495 3523 3496 3498 3496 3499 3520 3478 3503 3511 3492 3473 3492 3500 3499 3485 3480 3504 3493 3500 3522 3500 3489 3471 3494 3458 3479 3490 3481 3475 3482 3483 3440 3474 3505 3494 3483 3494 3501 3470 3500 3487 3481 3465 3460 3483 3462 3441 3461 3447 3444 3463 3466 3480 3467 3464 3444 3423 3454 3473 3427 3443 3459 3440 3484 3487 3439 3428 3467 3487 3442 3419 3463 3482 3452 3399 3444 3443 3425 3396 3420 3436 3445 3468 3487 3431 3450 3429 3422 3426 3467 3481 3460 3445 3441 3421 3442 3423 3397 3424 3415 3431 3467 3420 3408 3441 3496 3412 3429 3421

Tree=0
num_leaves=31
num_cat=0
split_feature=5 9 0 9 9 6 6 9 6 6 9 9 6 9 6 9 0 1 6 9 1 9 6 0 1 1 9 6 0 9
split_gain=20027.5 2897.17 1664.89 600.134 515.591 627.316 474.805 922.374 380.36 280.471 589.413 194.487 174.566 188.04 152.536 199.32 150.241 105.421 100.547 168.53 97.9398 97.6561 257.663 133.919 96.0206 95.1029 79.2938 82.8964 81.393 77.8888
threshold=1.0000000180025095e-35 0.90976364696914469 0.70907510266359075 1.1720184975339509 1.6479090809444343 1.1079900334036361 0.43683318650952591 1.0000000180025095e-35 -0.32305105650158389 -0.78214162803553011 -0.57033034606590405 0.67113955674431869 -1.17075361266277 -0.39807444898031974 0.68126672204320238 1.2010154729282438 0.8107575761487994 0.085473072434714359 0.054949696168166938 0.31938060377122385 0.085473072434714359 0.076606344031094897 -0.013875692709489922 0.65823386592098643 0.085473072434714359 0.085473072434714359 1.5353489960552398 1.4224054010491696 0.70907510266359075 -0.1931542111198884
decision_type=2 2 2 2 2 2 2 2 2 2 2 2 2 2 2 2 2 2 2 2 2 2 2 2 2 2 2 2 2 2
left_child=1 2 6 21 5 14 7 9 -9 10 17 18 -12 -14 -3 -16 -5 -1 19 -10 -11 -2 23 -23 -8 -4 28 -28 -7 -15
right_child=3 4 25 16 -6 26 24 8 11 20 12 -13 13 29 15 -17 -18 -19 -20 -21 -22 22 -24 -25 -26 -27 27 -29 -30 -31
leaf_value=-0.88099726439441306 -0.94896951952909692 -0.73236119303850222 -0.81599115031617309 -0.91654749231046273 -0.73138771449406526 -0.87868011965641479 -0.89724616046740913 -0.75299402156125073 -0.8611041042623 -0.89381860611537334 -0.74930099910226311 -0.75361975614407239 -0.87386798286727252 -0.80780418785487451 -0.83399962528247107 -0.74291837882527334 -0.87454943613105396 -0.85037305393913742 -0.86974963901786495 -0.76776846550860667 -0.86573018211714403 -0.92340672012593961 -0.94682280408794883 -0.87066345290980518 -0.87038105094407825 -0.79442818880819699 -0.74059222127778213 -0.86172425693947974 -0.81599115031617309 -0.7284488909896264
leaf_weight=600.20429933071136 5042.791601061821 273.83545565605164 1073.8320889472961 798.54886275529861 625.2300471663475 176.83482974767685 719.95560508966446 273.83545565605164 104.03265422582626 655.42640405893326 135.67678165435791 73.629472970962524 97.62109899520874 106.10089784860611 116.23529160022736 124.30144172906876 290.38140463829041 528.4362456202507 177.66212719678879 90.382246315479279 589.44943249225616 398.13689738512039 1532.568524479866 172.49151813983917 618.19801884889603 976.2109899520874 31.437303066253662 25.646220922470093 73.215824246406555 43.639940440654755
leaf_count=2902 24382 1324 5192 3861 3023 855 3481 1324 503 3169 656 356 472 513 562 601 1404 2555 859 437 2850 1925 7410 834 2989 4720 152 124 354 211
internal_value=-0.884663 -0.829906 -0.843458 -0.939926 -0.765602 -0.791643 -0.859527 -0.849785 -0.799373 -0.862944 -0.84847 -0.827867 -0.794878 -0.819876 -0.75788 -0.786932 -0.905348 -0.866659 -0.84256 -0.817713 -0.880519 -0.945195 -0.936144 -0.907463 -0.884835 -0.805723 -0.848186 -0.795014 -0.860325 -0.784677
internal_weight=0 8311.03 6864.29 8234.92 1446.74 821.506 4814.25 3476.1 719.542 2756.56 1511.68 445.707 383.039 247.362 514.372 240.537 1088.93 1128.64 372.077 194.415 1244.88 7145.99 2103.2 570.628 1338.15 2050.04 307.134 57.0835 250.051 149.741
internal_count=80000 40184 33189 39816 6995 3972 23277 16807 3479 13328 7309 2155 1852 1196 2487 1163 5265 5457 1799 940 6019 34551 10169 2759 6470 9912 1485 276 1209 724
is_linear=0
shrinkage=1


Tree=1
num_leaves=31
num_cat=0
split_feature=5 10 10 10 10 10 10 10 9 9 10 10 10 0 9 9 10 10 6 9 10 6 9 9 0 9 9 9 6 0
split_gain=18090.7 8499.21 3923.63 2513.44 1646.53 2613.75 658.248 682.441 575.204 406.544 402.797 528.622 308.212 234.776 208.122 157.332 144.125 394.202 139.566 236.572 139.364 111.238 156.647 100.584 98.6382 85.7001 74.6222 68.9822 96.4248 65.1683
threshold=1.0000000180025095e-35 0.84796722196426455 0.48624279369107543 1.0000000180025095e-35 -1.568660639240955 -1.4817802703929612 -0.79252410101829851 -0.54006083955625683 1.1720184975339509 1.1176648065195058 0.84796722196426455 0.48624279369107543 -1.568660639240955 0.70907510266359075 1.5353489960552398 1.6059345435461938 0.84796722196426455 0.48624279369107543 0.68126672204320238 0.16531094688611211 -1.568660639240955 -0.4974766905402831 -0.65126930851939457 0.86542513001669275 0.70907510266359075 1.3786243797727089 0.022946741878313751 -0.10252140345992182 -0.11892581025580366 0.70907510266359075
decision_type=2 2 2 2 2 2 2 2 2 2 2 2 2 2 2 2 2 2 2 2 2 2 2 2 2 2 2 2 2 2
left_child=1 2 3 4 -1 25 9 -8 16 13 11 12 -10 26 24 -5 17 20 19 21 27 22 -19 -9 -3 -6 -7 -2 -29 -24
right_child=8 14 -4 15 5 6 7 23 10 -11 -12 -13 -14 -15 -16 -17 -18 18 -20 -21 -22 -23 29 -25 -26 -27 -28 28 -30 -31
leaf_value=0.13568399540927795 -0.04125176932600777 -0.049692400720347814 0.13424463994688315 -0.042821250967024854 -0.043273902482776114 0.015671200734802583 0.13295537603955584 0.035409676433740767 0.096664205796719804 0.11835071638151458 -0.062099533085893083 0.089077242106048407 -0.03091352509478118 0.075720573818277889 0.049350913522038492 0.081981137751871824 -0.067802798799992306 -0.044836146249794769 -0.067252443037744705 0.06058953963930902 -0.061107970992139174 -0.067341349481411752 0.011786000704156793 0.10491817413014881 -0.022948506164062729 0.043240490425834728 0.048427882135636847 0.098799517245127311 -0.022375519179933967 0.095345353600907179
leaf_weight=713.87593497335911 101.40464651584625 1448.3870338946581 2116.0758531689644 641.76996773481369 602.19841331243515 557.62621234357357 706.05418987572193 290.32479099929333 52.117945790290833 196.03029131889343 370.29298578202724 140.52438685297966 516.5353362262249 333.63151870667934 62.571744218468666 26.28723332285881 2809.8826210796833 106.03223951160908 94.009276643395424 116.85943220555782 3467.3823585659266 96.877533629536629 64.047139838337898 63.415068492293358 452.4847174435854 30.053504645824432 252.63200806081295 26.351938307285309 43.547542691230774 36.707043036818504
leaf_count=3354 504 6955 9937 3064 2875 2677 3317 1381 254 903 1807 684 2520 1563 287 120 13946 527 467 574 17207 481 318 293 2120 139 1199 129 216 182
internal_value=0 0.0508418 0.0782684 0.0514327 0.0673667 0.0512815 0.0751104 0.104556 -0.0537924 0.0518212 -0.0198315 0.00223856 -0.0192208 0.0404199 -0.0403728 -0.0379104 -0.0590573 -0.0531404 -0.0121763 0.000136078 -0.058933 -0.0231283 -0.00241491 0.0478705 -0.0433263 -0.0391615 0.0258845 -0.0149089 0.0233072 0.0422286
internal_weight=0 8493.42 6529.97 4413.9 3745.84 3031.97 2399.71 1059.79 8042.57 1339.92 1079.47 709.178 568.653 1143.89 1963.44 668.057 6963.1 4153.22 514.533 420.523 3638.69 303.664 206.786 353.74 1900.87 632.252 810.258 171.304 69.8995 100.754
internal_count=80000 40184 30822 20885 17701 14347 11333 4991 39816 6342 5265 3458 2774 5439 9362 3184 34551 20605 2549 2082 18056 1508 1027 1674 9075 3014 3876 849 345 500
is_linear=0
shrinkage=0.05


Tree=2
num_leaves=31
num_cat=0
split_feature=5 10 10 10 10 10 9 10 10 10 10 9 10 0 9 9 10 10 7 9 10 0 9 9 10 10 10 7 9 0
split_gain=16382.8 7422.52 3213.24 2201.08 1352.94 2283.53 555.419 544.954 554.926 417.68 567.145 341.469 333.409 200.908 190.638 142.207 111.714 296.318 139.987 204.106 102.18 93.7395 85.9082 80.7873 73.8963 153.255 129.776 72.1402 107.411 65.4383
threshold=1.0000000180025095e-35 0.84796722196426455 0.48624279369107543 1.0000000180025095e-35 -1.568660639240955 -1.4817802703929612 0.90976364696914469 -0.79252410101829851 -0.54006083955625683 0.84796722196426455 0.48624279369107543 1.1176648065195058 -1.568660639240955 0.70907510266359075 1.5353489960552398 1.6059345435461938 0.84796722196426455 0.48624279369107543 0.1375410307371405 -0.35119379682124591 -1.568660639240955 0.70907510266359075 1.5026188604750821 0.93464682532853571 1.0000000180025095e-35 -0.79252410101829851 -0.54006083955625683 -1.224867259615291 -0.80507578618326114 0.65823386592098643
decision_type=2 2 2 2 2 2 2 2 2 2 2 2 2 2 2 2 2 2 2 2 2 2 2 2 2 2 2 2 2 2
left_child=1 2 3 4 -1 23 16 11 -9 10 12 13 -8 -7 21 -5 17 20 19 27 -2 -3 -10 -6 25 -14 -27 28 -19 -21
right_child=6 14 -4 15 5 7 9 8 22 -11 -12 -13 24 -15 -16 -17 -18 18 -20 29 -22 -23 -24 -25 -26 26 -28 -29 -30 -31
leaf_value=0.12267752552057656 -0.01940826649725215 -0.048225514273699061 0.12144392506277146 -0.041421322876616824 -0.043759241804606691 0.024332168083153732 0.085792968195603572 0.1203218311567148 0.036673852418967472 -0.06179243664927804 0.075598289755090087 0.1079366341673663 -0.039129591850226624 0.06991639679942005 0.046068302604470132 0.075725582617640744 -0.06652019817302296 -0.049801313493895036 -0.056985086452394411 0.017757188904999509 -0.06027724042442531 -0.022000779002951096 0.119455033927447 0.016921274567815989 -0.063387534113129654 0.084851265856924485 -0.024072340180224888 -0.061723669514975925 0.061271542412509206 0.08615617353400401
leaf_weight=749.09112624824047 160.56450809538364 1418.584961399436 2219.2561561763287 630.57515433430672 561.31146778166294 818.55722962319851 63.713230460882187 740.21702556312084 325.4204224050045 470.39253579080105 180.47262196242809 203.97473312914371 390.93372093141079 343.00540851056576 63.64971074461937 27.015846610069275 2614.6884815245867 48.110469996929169 146.10382194817066 82.586476787924767 3220.5756652802229 448.48162916302681 34.68099544942379 60.791546225547791 161.36486305296421 52.175501018762589 57.462647348642349 99.488870099186897 39.74850569665432 60.646719306707382
leaf_count=3354 802 6955 9937 3064 2730 3876 301 3317 1521 2369 855 903 1946 1563 287 120 13384 244 740 405 16432 2120 153 284 804 259 286 502 197 290
internal_value=0 0.0473722 0.0722176 0.0479118 0.0623968 0.0477736 -0.0524075 0.0693702 0.0955555 -0.0235659 -0.0037215 0.0482706 -0.0234487 0.037793 -0.0390253 -0.0366086 -0.0585412 -0.0531334 -0.0162277 0.00178553 -0.0583364 -0.0419262 0.0446464 -0.0378296 -0.0339635 -0.0244784 0.0277631 -0.0325669 0.000449444 0.0467182
internal_weight=0 8644.61 6713.9 4494.64 3837.05 3087.96 7849.03 2465.86 1100.32 1376.52 906.123 1365.54 725.65 1161.56 1930.72 657.591 6472.51 3857.83 476.685 330.581 3381.14 1867.07 360.101 622.103 661.937 500.572 109.638 187.348 87.859 143.233
internal_count=80000 40184 30822 20885 17701 14347 39816 11333 4991 6820 4451 6342 3596 5439 9362 3184 32996 19612 2378 1638 17234 9075 1674 3014 3295 2491 545 943 441 695
is_linear=0
shrinkage=0.05


Tree=3
num_leaves=31
num_cat=0
split_feature=5 10 10 10 10 10 9 10 10 10 10 9 10 9 0 10 10 10 9 6 6 9 9 0 9 9 9 6 6 9
split_gain=14889.8 6534.35 2690.14 1940.59 1136.81 2007.95 535.516 460.868 463.729 326.746 358.436 295.422 213.641 175.367 172.466 161.522 406.449 152.686 132.273 173.937 134.023 133.169 128.879 86.1394 76.4042 75.0575 74.0227 69.2765 63.6983 59.0406
threshold=1.0000000180025095e-35 0.84796722196426455 0.48624279369107543 1.0000000180025095e-35 -1.568660639240955 -1.4817802703929612 1.3786243797727089 -0.79252410101829851 -0.54006083955625683 0.84796722196426455 0.48624279369107543 0.93464682532853571 -1.568660639240955 1.4094367357811532 0.70907510266359075 0.84796722196426455 0.48624279369107543 -1.568660639240955 0.16531094688611211 0.84858173901496559 -0.4974766905402831 -0.67141641925562279 1.6059345435461938 0.70907510266359075 0.86542513001669275 1.7308427380237343 0.10884255522771903 0.1095028690709979 0.45176321092011229 0.44745297237179699
decision_type=2 2 2 2 2 2 2 2 2 2 2 2 2 2 2 2 2 2 2 2 2 2 2 2 2 2 2 2 2 2
left_child=1 2 3 4 -1 25 15 11 -9 10 12 14 -8 23 28 16 17 26 20 -20 21 -18 -5 -3 -10 -6 -2 -28 -7 -4
right_child=6 13 29 22 5 7 9 8 24 -11 -12 -13 -14 -15 -16 -17 18 -19 19 -21 -22 -23 -24 -25 -26 -27 27 -29 -30 -31
leaf_value=0.11225634255227557 -0.034304643667624042 -0.047272679071704321 0.10523837552545388 -0.040073034658219923 -0.039280744213366886 0.030388249060689584 0.088954559737867353 0.11015713262080651 0.030890398143872767 -0.058088486169606983 0.083534139314243208 0.094650037532590145 -0.02460154622703202 0.030899697367524705 0.064117545005002524 -0.065219743067182548 -0.044616128824091744 -0.057971618021869488 0.052318272065019933 -0.056164381350015127 -0.065939899556268985 0.035990272222567621 0.070291057897462761 -0.021825086536194433 0.089874939371778748 0.075660928976131067 0.093930529515354966 -0.012083054096532264 -0.0011545722506411005 0.12198905507175538
leaf_weight=776.92099286615849 115.68175128102303 1370.2695607841015 1486.9142792969942 619.48725435137749 597.48194010555744 578.0530658364296 46.235872775316238 767.33554902672768 298.44739027321339 276.60106956958771 123.49703054130077 247.19191382825375 397.60624343156815 88.726951748132706 341.18142838776112 2712.9195507019758 96.96466101706028 3383.5907892733812 142.94139654934406 49.830857425928116 136.41688513755798 108.65754407644272 27.632472947239876 439.10832165181637 67.277103692293167 14.548820182681082 26.830419391393661 36.203328564763069 221.33965675532818 814.0462808161974
leaf_count=3354 588 6863 6459 3064 2949 2707 210 3317 1381 1427 564 1070 1995 405 1519 14326 501 17732 678 251 713 526 120 2094 293 65 127 178 1046 3478
internal_value=0 0.0443705 0.0670945 0.0448417 0.0581162 0.04469 -0.0511009 0.0644138 0.088074 -0.0135317 0.00819154 0.0450962 -0.0127722 -0.0377315 0.0343565 -0.0557567 -0.0494907 -0.0555926 -0.00884641 0.0242759 -0.0275141 -0.00202105 -0.0353604 -0.0410969 0.0417409 -0.0365484 -0.0105513 0.0330418 0.0216545 0.111165
internal_weight=0 8755.96 6857.86 4556.9 3909.78 3132.86 7653.98 2520.83 1133.06 843.94 567.339 1387.77 443.842 1898.1 1140.57 6810.04 4097.12 3562.31 534.811 192.772 342.039 205.622 647.12 1809.38 365.724 612.031 178.715 63.0337 799.393 2300.96
internal_count=80000 40184 30822 20885 17701 14347 39816 11333 4991 4196 2769 6342 2205 9362 5272 35620 21294 18625 2669 929 1740 1027 3184 8957 1674 3014 893 305 3753 9937
is_linear=0
shrinkage=0.05


Tree=4
num_leaves=31
num_cat=0
split_feature=10 10 10 10 10 10 10 9 9 0 0 7 9 9 9 9 9 9 7 0 7 9 7 7 9 7 7 7 9 9
split_gain=7458.46 6006.19 3199.35 1423.36 2397.59 998.033 1093.75 335.715 190.947 134.299 123.176 117.735 97.2569 77.9412 74.3443 67.5597 58.7341 57.6142 136.264 53.5866 51.9705 46.0844 86.918 44.6343 45.0007 43.2555 43.2093 41.4046 80.2618 40.1571
threshold=0.84796722196426455 0.48624279369107543 -1.568660639240955 -1.4817802703929612 1.0000000180025095e-35 -0.79252410101829851 -0.54006083955625683 1.1176648065195058 0.72615976767031476 0.70907510266359075 0.70907510266359075 0.054949754246626507 0.37548318557896027 0.86542513001669275 0.15376581192878261 -0.39177343801251763 0.76608424087067029 0.022946741878313751 0.37206019858908873 0.70907510266359075 -1.0457217753544226 1.7725031283937984 1.3243605722362448 -1.1571324078031939 -0.73593285930031171 1.1358945507917011 -0.55262691371073325 0.096200503790776576 -0.32376940994263226 1.6059345435461938
decision_type=2 2 2 2 2 2 2 2 2 2 2 2 2 2 2 2 2 2 2 2 2 2 2 2 2 2 2 2 2 2
left_child=1 2 14 -4 5 7 12 9 10 17 11 15 19 -8 26 23 -2 20 -19 -7 -5 22 -9 24 -3 -15 -1 28 -11 -6
right_child=16 8 3 4 29 6 13 21 -10 27 -12 -13 -14 25 -16 -17 -18 18 -20 -21 -22 -23 -24 -25 -26 -27 -28 -29 -30 -31
leaf_value=0.083457984797887547 -0.055292237065004801 0.060269605683435812 -0.052986543845122781 -0.0060732914698073083 -0.053835059079122262 0.060190445742640736 -0.0081331252134618972 0.047364801985084387 0.10155716772890072 0.0057272779732789568 0.089542592387172548 0.042478324097535401 0.10343406165317917 0.062184604091141529 0.097832499277309554 0.090234031457916461 -0.040197554586026585 0.028545378460505172 -0.024792714173668524 0.090487928034613391 -0.029391663620370156 0.061706936083093293 -0.024231326323336216 0.047494171441606135 0.10113521855629355 0.0035477553685829759 0.055648756563392514 -0.0038645828302249145 0.053018316717045516 -0.020505987062274956
leaf_weight=305.62073747813702 3991.3180987983942 168.76213565468788 1608.2015417218208 358.92427511513233 1515.8710352927446 405.366779088974 536.91556560993195 150.70945923030376 888.73438236117363 261.66734382510185 796.29688149690628 412.20735055208206 367.43043705821037 68.988500013947487 460.76217636466026 395.74390248954296 768.52616329491138 217.51367312669754 266.38984920084476 228.04536226391792 714.83070527017117 180.17058669030666 58.980398952960968 248.59937737882137 112.12412177026272 57.80377796292305 257.26121115684509 254.920375213027 136.53565694391727 96.10650223493576
leaf_count=1345 21130 758 8413 1792 7958 1828 2652 695 3775 1266 3463 1858 1599 319 1972 1710 3985 1064 1331 1008 3602 826 276 1119 487 271 1140 1236 652 470
internal_value=0 0.0215383 3.18493e-05 -0.011306 9.93293e-05 0.0197322 0.049964 0.000382161 0.0820843 -0.00716175 0.0739736 0.0647039 0.0829695 0.0001933 0.0829392 0.0746058 -0.052855 -0.0151416 -0.000817347 0.0710984 -0.021597 0.0431614 0.0272266 0.0629251 0.0765823 0.0354524 0.070748 0.0118697 0.0219424 -0.051848
internal_weight=0 11531.5 8509.02 7485.37 5877.17 4265.19 1664.55 2600.64 3022.47 2210.78 2133.73 1337.44 1000.84 663.708 1023.64 925.23 4759.84 1557.66 483.904 633.412 1073.75 389.86 209.69 529.486 280.886 126.792 562.882 653.123 398.203 1611.98
internal_count=80000 54885 41715 37258 28845 20417 7677 12740 13170 10943 9395 5932 4435 3242 4457 4074 25115 7789 2395 2836 5394 1797 971 2364 1245 590 2485 3154 1918 8428
is_linear=0
shrinkage=0.05


Tree=5
num_leaves=31
num_cat=0
split_feature=5 9 9 6 9 9 6 6 6 9 9 1 9 6 1 6 9 6 6 9 9 6 1 9 6 6 9 6 9 6
split_gain=13080.4 1472.51 490.794 360.713 714.856 255.448 418.134 245.697 209.245 500.645 155.002 97.7585 94.8544 130.157 92.8968 92.4884 216.147 90.4388 84.6386 131.049 79.6995 135.145 79.0586 67.0337 111.353 66.8236 100.361 54.7454 137.687 74.0619
threshold=1.0000000180025095e-35 0.84565077928661159 0.90976364696914469 0.27321531711134367 -0.0078987432046360301 1.6479090809444343 0.94621582085977707 -0.48515851173314711 -0.90569232101654651 -0.58394546900019184 0.22963370926446222 0.085473072434714359 1.6878868386702173 0.75123004335047694 0.085473072434714359 0.31403935405087413 0.076606344031094897 -0.41823731582542445 -1.2521811573001544 -0.35119379682124591 1.4094367357811532 1.2847298458106386 0.085473072434714359 0.58682536711273037 -0.027950170870781606 0.58883774347235729 1.1176648065195058 -0.66072775677641127 -0.65126930851939457 -1.2929047827658691
decision_type=2 2 2 2 2 2 2 2 2 2 2 2 2 2 2 2 2 2 2 2 2 2 2 2 2 2 2 2 2 2
left_child=1 3 15 4 8 6 25 -6 9 22 -9 -5 13 -4 -10 16 27 -18 -11 -20 -8 -22 -1 24 -12 -3 -27 28 -2 -30
right_child=2 5 12 11 7 -7 20 10 14 18 23 -13 -14 -15 -16 -17 17 -19 19 -21 21 -23 -24 -25 -26 26 -28 -29 29 -31
leaf_value=0.015294859365086412 -0.061339803523013187 0.11064323048715058 -0.0067964475650059523 0.0038970081162457678 0.11400986615460768 0.10439281242982604 0.016764068718830776 0.026592116766647647 0.0063936231303756107 0.11516619977379677 0.089980389525737864 0.024972518728056132 -0.0063415938677059752 -0.049066258522729805 0.028441699119528548 -0.064703272279271293 -0.00068412060782255875 -0.038647484620809497 0.043761732374812283 0.10968064199147526 0.1089470030794497 0.019648113588728037 0.038126940644620709 0.10813291956945366 0.027545271464088229 0.039271402539384839 0.10737978696779965 -0.06477072718285716 -0.0039081023052979563 -0.042609242358946219
leaf_weight=794.44172075390816 1361.1527821719646 318.95759803056717 290.22662471234798 1157.2986170202494 305.51848693192005 733.57026846706867 310.1752253472805 229.47949470579624 993.6132715344429 157.02189195156097 175.88934165239334 1048.9149504303932 559.93923950195312 488.89662167429924 920.19757696986198 1880.0518644452095 231.9582691937685 484.68115402758121 187.96948549151421 125.89469558000565 76.092219322919846 95.600804433226585 725.26203764975071 126.33501073718071 120.22892367839813 104.09500615298748 112.59052394330502 1273.7622966766357 153.2686320245266 639.0421064645052
leaf_count=3737 7501 1340 1477 5515 1303 3023 1421 1052 4708 669 768 4879 2793 2550 4254 10384 1201 2582 857 543 320 427 3328 544 552 468 476 7030 819 3479
internal_value=0 0.0408542 -0.049419 0.0306849 0.0382939 0.0819014 0.0656863 0.0770105 0.0287996 0.0401492 0.0596713 0.0139171 -0.0220391 -0.0333206 0.0169948 -0.0555053 -0.0513322 -0.0263597 0.0851962 0.0702026 0.0318929 0.0592243 0.0261912 0.0776401 0.0646307 0.0960871 0.0746607 -0.056554 -0.0516939 -0.0351227
internal_weight=0 8819.15 7362.98 7068.07 4861.85 1751.08 1017.51 957.451 3904.4 1990.59 651.933 2206.21 1339.06 779.123 1913.81 6023.92 4143.87 716.639 470.886 313.864 481.868 171.693 1519.7 422.453 296.118 535.643 216.686 3427.23 2153.46 792.311
internal_count=80000 40184 39816 32709 22315 7475 4452 4219 18096 9134 2916 10394 6820 4027 8962 32996 22612 3783 2069 1400 2168 747 7065 1864 1320 2284 944 18829 11799 4298
is_linear=0
shrinkage=0.05


Tree=6
num_leaves=31
num_cat=0
split_feature=5 10 10 10 10 10 9 10 10 10 10 10 9 9 0 9 10 10 6 9 6 10 0 9 9 10 10 10 6 9
split_gain=11932.8 5096.08 1909.5 1523.12 807.152 1575.54 475.907 343.07 395.176 319.822 320.686 242.38 209.316 150.34 142.755 105.486 98.6109 236.262 118.733 159.237 95.9309 82.4559 73.3908 71.8931 69.6081 66.8932 128.403 101.956 65.0799 87.2177
threshold=1.0000000180025095e-35 0.84796722196426455 0.48624279369107543 1.0000000180025095e-35 -1.568660639240955 -1.4817802703929612 0.90976364696914469 0.84796722196426455 0.48624279369107543 -0.79252410101829851 -0.54006083955625683 -1.568660639240955 1.2851093426307794 0.90976364696914469 0.70907510266359075 1.6059345435461938 0.84796722196426455 0.48624279369107543 0.13754104979740808 -0.35119379682124591 0.70941905273120442 -1.568660639240955 0.70907510266359075 1.7308427380237343 0.93464682532853571 1.0000000180025095e-35 -0.79252410101829851 -0.54006083955625683 -1.2248673178545169 -0.83490214679943531
decision_type=2 2 2 2 2 2 2 2 2 2 2 2 2 2 2 2 2 2 2 2 2 2 2 2 2 2 2 2 2 2
left_child=1 2 3 4 -1 24 16 8 11 12 -11 -8 14 22 -7 -5 17 21 19 28 -15 -2 -3 -22 -6 26 -13 -28 29 -19
right_child=6 13 -4 15 5 9 7 -9 -10 10 -12 25 -14 20 -16 -17 -18 18 -20 -21 23 -23 -24 -25 -26 -27 27 -29 -30 -31
leaf_value=0.094681956424741656 -0.019208071247822207 -0.046626853568184128 0.093789096805862712 -0.037834092397355912 -0.040219576798755007 0.021321772278857114 0.068011550063281911 -0.057922849744522588 0.059506784276131999 0.092736185544655209 0.036746397187051659 -0.035798461825940084 0.089983452681536 0.074453566703982552 0.058352552322945166 0.060338836965843558 -0.062392634804686133 -0.051728490432827713 -0.054949497468362508 0.038118204658444857 -0.030007889125802285 -0.056103129130703894 -0.022112245876159699 0.051313653905070616 0.016223878003635527 -0.060020158242002443 0.073697572694316593 -0.022035300544947196 -0.059933469770020613 0.047847505737097368
leaf_weight=816.983363956213 159.75301721692085 1238.7525445371866 2417.9856717884541 600.20343136787415 533.67704994976521 866.71830014884472 68.902519598603249 429.21984325349331 194.48069560527802 807.10892859101295 374.36303198337555 372.27294392883778 181.15559537708759 40.224256858229637 371.94892503321171 28.669306308031082 2307.8303428441286 42.588350549340248 139.58222371339798 150.31978797912598 123.00722800195217 2908.3151099383831 405.15951754152775 34.88578274846077 60.850835010409355 149.10328866541386 55.149039596319199 56.106807038187981 95.313668072223663 45.467841193079948
leaf_count=3354 802 6447 9937 3064 2730 3997 301 2369 855 3317 1674 1946 742 183 1603 120 13384 225 740 695 606 16432 1976 150 284 804 259 286 502 216
internal_value=0 0.0384359 0.0577604 0.038992 0.0503305 0.0389924 -0.0482209 -0.0211665 -0.00355897 0.055776 0.0749952 -0.0210422 0.0397832 -0.0356261 0.0324414 -0.0333585 -0.0543506 -0.0491097 -0.0162275 -3.01678e-05 0.00552082 -0.054182 -0.040585 -0.0120402 -0.0344425 -0.0307414 -0.0217128 0.0254191 -0.0313028 -0.000312395
internal_weight=0 8901.69 7059.66 4641.68 4012.81 3195.82 7174.41 1325.24 896.015 2601.29 1181.47 701.535 1419.82 1842.03 1238.67 628.873 5849.17 3541.34 473.272 333.69 198.117 3068.07 1643.91 157.893 594.528 632.632 483.529 111.256 183.37 88.0562
internal_count=80000 40184 30822 20885 17701 14347 39816 6820 4451 11333 4991 3596 6342 9362 5600 3184 32996 19612 2378 1638 939 17234 8423 756 3014 3295 2491 545 943 441
is_linear=0
shrinkage=0.05


Tree=7
num_leaves=31
num_cat=0
split_feature=5 10 10 10 10 10 9 10 10 10 10 10 9 9 10 10 6 9 9 6 6 9 10 9 6 9 9 10 10 10
split_gain=10933.2 4565.12 1676.98 1362.79 711.951 1404.91 458.259 323.185 353.917 283.43 285.119 218.693 193.229 140.081 98.5265 227.203 111.344 129.907 96.1447 84.6438 83.1234 91.2253 80.3542 65.6681 120.723 65.0427 64.9082 64.0422 117.708 89.352
threshold=1.0000000180025095e-35 0.84796722196426455 0.48624279369107543 1.0000000180025095e-35 -1.568660639240955 -1.4817802703929612 0.90976364696914469 0.84796722196426455 0.48624279369107543 -0.79252410101829851 -0.54006083955625683 -1.568660639240955 0.28013006398160961 0.90976364696914469 0.84796722196426455 0.48624279369107543 0.42397810760010274 -0.17824589592064485 1.6059345435461938 0.70941905273120442 -0.91922558952885891 -0.73593285930031171 -1.568660639240955 1.6479090809444343 0.60292099498373741 0.86542513001669275 1.7308427380237343 1.0000000180025095e-35 -0.79252410101829851 -0.54006083955625683
decision_type=2 2 2 2 2 2 2 2 2 2 2 2 2 2 2 2 2 2 2 2 2 2 2 2 2 2 2 2 2 2
left_child=1 2 3 4 -1 25 14 8 11 12 -11 -8 -7 -3 15 22 17 20 -5 -15 21 -17 -2 24 -14 -6 -21 28 -13 -30
right_child=6 13 -4 18 5 9 7 -9 -10 10 -12 27 23 19 -16 16 -18 -19 -20 26 -22 -23 -24 -25 -26 -27 -28 -29 29 -31
leaf_value=0.088831580132076204 -0.018409946761952973 -0.039336365833704298 0.087991019689196565 -0.03660612870910019 -0.039340860459291388 0.024507011621355653 0.063402673451264199 -0.056802882680671823 0.055565823626489555 0.086998633934220249 0.034508897638315432 -0.034624964864459366 0.084944248614011134 0.068997854547963713 -0.061465466762091941 -0.044530115739360991 -0.063624565897720156 0.032973639013827542 0.056632133328909262 -0.028889507200023881 -0.064844022038165125 0.037760330181432065 -0.055010591236612207 0.096169097220596966 0.026599454134879703 0.012604234502227677 0.04810484914829969 -0.058865743367027303 0.068088632509437072 -0.02115582869529849
leaf_weight=826.968266710639 158.38059882819653 1612.16720508039 2447.6162316650152 589.59409964084625 516.59524182975292 959.58467312157154 70.180794700980186 416.13174402713776 197.77110783755779 817.04152503609657 378.59095594286919 365.81209994852543 161.51687274873257 41.207705467939377 2227.5471142679453 66.030982539057732 95.980677932500839 148.79531818628311 29.009227380156517 121.42175169289112 88.899642676115036 68.738584250211716 2820.0213109999895 116.25179128348827 196.5494626313448 68.221096873283386 35.339900851249695 144.54203553497791 56.665998786687851 55.532210037112236
leaf_count=3354 802 8423 9937 3064 2694 4327 301 2369 855 3317 1674 1946 687 183 13384 355 530 689 120 606 481 323 16432 468 860 320 150 804 259 286
internal_value=0 0.036426 0.0544797 0.0368779 0.0474568 0.0368122 -0.0471225 -0.0204264 -0.00342768 0.0524012 0.070378 -0.02027 0.0374115 -0.0344622 -0.0532698 -0.0479733 -0.0156044 -0.00323001 -0.0322337 0.00523035 -0.0273144 -0.00255826 -0.0530643 0.0635183 0.0529177 -0.0332813 -0.0115321 -0.0297024 -0.020884 0.0239173
internal_weight=0 8917.68 7107.54 4659.92 4041.32 3214.35 6981.03 1306.64 890.504 2629.54 1195.63 692.733 1433.9 1810.14 5674.39 3446.85 468.445 372.465 618.603 197.969 223.669 134.77 2978.4 474.318 358.066 584.816 156.762 622.552 478.01 112.198
internal_count=80000 40184 30822 20885 17701 14347 39816 6820 4451 11333 4991 3596 6342 9362 32996 19612 2378 1848 3184 939 1159 678 17234 2015 1547 3014 756 3295 2491 545
is_linear=0
shrinkage=0.05


Tree=8
num_leaves=31
num_cat=0
split_feature=5 9 0 9 6 9 9 6 6 9 6 6 9 9 6 0 0 9 6 9 6 9 1 9 6 9 9 6 1 6
split_gain=10033.3 1092.97 826.025 442.61 267.464 475.765 190.306 326.782 159.941 326.997 148.841 128.305 176.851 113.78 241.307 153.713 104.17 98.4476 88.4186 103.817 88.3101 153.2 63.7864 55.5815 54.4885 68.2642 53.0704 68.8835 51.2437 49.4337
threshold=1.0000000180025095e-35 0.84565077928661159 0.70907510266359075 1.3786243797727089 0.30078070103737736 1.0000000180025095e-35 1.6878868386702173 1.1358946856699077 -0.78214162803553011 -0.70347702319018379 -0.48515851173314711 -1.3070692311502667 -0.44434765754951261 0.16531094688611211 0.13754104979740808 0.70907510266359075 0.75991633940619507 0.60263303243246102 0.65505416941873562 1.1437628720586583 -0.55262693330133827 -0.37749318519777697 0.085473072434714359 -0.22872626528016363 0.054949696168166938 0.15376581192878261 1.5353489960552398 1.4915579105515568 0.085473072434714359 0.014690431589282118
decision_type=2 2 2 2 2 2 2 2 2 2 2 2 2 2 2 2 2 2 2 2 2 2 2 2 2 2 2 2 2 2
left_child=1 2 4 13 5 8 7 18 9 -1 -7 -11 -13 20 15 -15 -5 24 -3 -20 21 -2 -6 -14 25 -12 -9 -28 -10 -4
right_child=3 6 29 16 22 10 -8 26 28 11 17 12 23 14 -16 -17 -18 -19 19 -21 -22 -23 -24 -25 -26 -27 27 -29 -30 -31
leaf_value=0.0045352841446084742 -0.054568986966573529 0.092653598888168209 0.056980026133893892 -0.023026530938385383 -0.013414502111360619 0.094325478211113506 0.089668840409300371 0.0077380073879081733 -0.01159001629638432 0.08801235533400259 0.0033855841070021321 0.0053810134079848278 0.047965225110989433 -0.029342208456841989 -0.052534858292037724 0.029327380831775319 0.016233185431374614 0.090017598463257353 0.024257399975827789 0.081310638304542993 -0.062571527448987238 -0.020741601625104439 0.0074228559751603473 0.097809537555971063 0.0021611220938549894 0.059418751795523167 0.084122064948249309 -0.0092413876105245738 0.0094846912250140178 0.041731380082025864
leaf_weight=952.23926265537739 1761.7175945490599 380.13919243216515 1362.0711491107941 568.51173810660839 770.64974704384804 210.0113762319088 709.72968535125256 282.65752853453159 600.26814931631088 170.60667859017849 74.462133139371872 223.43814046680927 142.39145584404469 384.4940278083086 1194.9130055457354 157.32092720270157 240.41088134050369 92.62935408949852 138.15791746973991 188.55486598610878 2069.198783621192 413.20880760252476 701.65547436475754 92.107969418168068 106.36332294344902 201.29711103439331 57.839765340089798 30.004729554057121 555.25046691298485 871.60906526446342
leaf_count=4514 10608 1557 5907 2990 3790 874 2858 1288 2934 731 345 1046 631 2149 7035 824 1206 389 618 786 12615 2389 3317 387 500 880 237 131 2611 3853
internal_value=0 0.0346024 0.0258353 -0.0460707 0.0143348 0.0220034 0.069566 0.0563229 0.0126757 0.023011 0.0592767 0.0510015 0.0372129 -0.0507656 -0.0399848 -0.012307 -0.0113586 0.0437725 0.0762594 0.0571844 -0.0551771 -0.0481422 -0.00348406 0.0675433 0.0325623 0.0442883 0.0182874 0.0522322 -0.00146319 0.0510298
internal_weight=0 8914.13 7127.05 6789.78 4893.37 3421.07 1787.08 1077.35 2736.3 1580.78 684.763 628.544 457.938 5980.85 1736.73 541.815 808.923 474.752 706.852 326.713 4244.13 2174.93 1472.31 234.499 382.123 275.759 370.502 87.8445 1155.52 2233.68
internal_count=80000 40184 32709 39816 22949 15842 7475 4617 12854 7309 2988 2795 2064 35620 10008 2973 4196 2114 2961 1404 25612 12997 7107 1018 1725 1225 1656 368 5545 9760
is_linear=0
shrinkage=0.05


Tree=9
num_leaves=31
num_cat=0
split_feature=5 9 0 9 6 9 9 6 6 0 6 9 6 9 6 9 0 9 9 6 9 6 6 9 6 9 0 1 1 6
split_gain=9187.64 986.512 727.033 434.878 240.249 397.059 168.95 283.121 165.963 145.516 143.554 286.987 119.847 148.792 106.618 214.573 103.139 93.0764 68.5214 110.455 66.7095 115.155 64.6296 79.7162 60.3733 72.713 58.0356 53.3635 53.2145 50.0452
threshold=1.0000000180025095e-35 0.86542513001669275 0.70907510266359075 0.74652882003854404 0.43683318650952591 -0.0078987432046360301 1.6878868386702173 0.94621582085977707 -0.48515851173314711 0.8107575761487994 -0.78214162803553011 -0.70347702319018379 -1.18400637499835 -0.44434765754951261 0.13754104979740808 -0.12538069654044226 0.70907510266359075 0.67113955674431869 1.4094367357811532 1.3523486580250179 1.6878868386702173 0.60292099498373741 -0.56714470666820327 0.43331403938536572 0.054949696168166938 0.15376581192878261 0.70907510266359075 0.085473072434714359 0.085473072434714359 -0.91922558952885891
decision_type=2 2 2 2 2 2 2 2 2 2 2 2 2 2 2 2 2 2 2 2 2 2 2 2 2 2 2 2 2 2
left_child=1 2 4 14 5 10 7 -3 -7 28 11 -1 -13 -14 15 29 -17 24 26 -20 21 -11 -18 -24 25 -10 -9 -12 -5 -2
right_child=3 6 -4 9 -6 8 -8 18 17 20 27 12 13 -15 -16 16 22 -19 19 -21 -22 -23 23 -25 -26 -27 -28 -29 -30 -31
leaf_value=0.0043018139976348123 -0.047244609042933844 0.078690083729635096 0.047946305906545084 -0.041607641425406815 -0.0046420464775647572 0.088881943037714461 0.085152960556349327 -0.0030861709824745471 0.0016591097337907445 0.035009847581554371 -0.011150146110198536 0.073124479985428301 -0.0066656651883861334 0.05775027267661216 -0.06187857962097161 -0.035414095531732769 0.041889223571708822 0.083102869940525223 0.083893760015007743 0.009782341807425543 0.030296416449872139 -0.035464707702664598 -0.034888313387200186 0.049105721749616971 0.0062067102888464717 0.05783341149371625 0.044090837736991496 0.0095667645918292611 -0.019275972462840695 -0.06114316668042246
leaf_weight=953.68551424145699 1446.7732906639576 541.12648065388203 2269.2191569060087 552.63844855129719 1306.0887673944235 217.76217968761921 709.98113609850407 208.85272999107838 78.787633523344994 88.096667990088463 639.6234233379364 268.05710676312447 161.72933861613274 201.13678035140038 1752.9717839211226 529.81539569795132 77.44312784075737 93.843708246946335 107.46563339233398 94.472230240702629 153.3270418792963 169.46427227556705 114.76908282935619 37.470834210515022 184.26567485928535 214.28858508169651 94.769010648131371 604.70782309770584 515.69511963427067 1172.6488819867373
leaf_count=4514 8920 2237 9814 3085 6321 900 2858 959 366 456 3144 1142 772 870 11071 3113 415 394 442 414 750 955 658 195 866 924 412 2835 2829 7369
internal_value=0 0.0327341 0.0245307 -0.044988 0.0137396 0.0203755 0.0663256 0.0535548 0.0517414 -0.0211023 0.011628 0.021609 0.04777 0.0290401 -0.0518729 -0.046682 -0.0232824 0.0375817 0.0266512 0.0492223 0.00418486 -0.0113594 0.00470198 -0.0142148 0.0286324 0.0427321 0.0116391 -0.00108235 -0.0308279 -0.0534666
internal_weight=0 8949.86 7193.2 6611.11 4923.98 3617.89 1756.67 1046.69 788.948 1479.22 2828.94 1584.61 630.923 362.866 5131.89 3378.92 759.498 571.186 505.56 201.938 410.888 257.561 229.683 152.24 477.342 293.076 303.622 1244.33 1068.33 2619.42
internal_count=80000 40184 32862 39816 23048 16727 7322 4464 3450 8075 13277 7298 2784 1642 31741 20670 4381 2550 2227 856 2161 1411 1268 853 2156 1290 1371 5979 5914 16289
is_linear=0
shrinkage=0.05


Tree=10
num_leaves=31
num_cat=0
split_feature=5 10 10 10 10 10 9 10 10 10 10 10 9 9 6 9 10 10 10 0 9 6 10 10 10 0 9 6 9 6
split_gain=8420.84 3928.34 1446.13 1170.94 618.722 1202.08 423.483 334.712 370.815 245.98 251.004 211.992 146.302 109.768 106.818 209.14 157.544 127.286 98.6652 79.7395 74.0621 64.307 61.3567 119.316 97.3559 54.1825 53.9592 91.7935 52.3469 51.8821
threshold=1.0000000180025095e-35 0.84796722196426455 0.48624279369107543 1.0000000180025095e-35 -1.568660639240955 -1.4817802703929612 0.74652882003854404 0.84796722196426455 0.48624279369107543 -0.79252410101829851 -0.54006083955625683 -1.568660639240955 0.15376581192878261 0.90976364696914469 0.13754104979740808 -0.12538069654044226 0.84796722196426455 0.48624279369107543 -1.568660639240955 0.60739262917838222 1.6059345435461938 0.70941905273120442 1.0000000180025095e-35 -0.79252410101829851 -0.54006083955625683 0.70907510266359075 1.6479090809444343 0.60292099498373741 0.86542513001669275 -0.61930967726648911
decision_type=2 2 2 2 2 2 2 2 2 2 2 2 2 2 2 2 2 2 2 2 2 2 2 2 2 2 2 2 2 2
left_child=1 2 3 4 -1 28 14 8 11 12 -11 -8 19 25 15 -2 17 18 -17 -7 -5 -15 23 -13 -25 -3 27 -14 -6 -20
right_child=6 13 -4 20 5 9 7 -9 -10 10 -12 22 26 21 -16 16 -18 -19 29 -21 -22 -23 -24 24 -26 -27 -28 -29 -30 -31
leaf_value=0.07953431574550679 -0.05250010280928083 -0.044649393990615592 0.078649306927443707 -0.03665972555587993 -0.039228983276904057 0.0089514799840902087 0.058643386457313096 -0.055077177153409165 0.053367735921567627 0.077740858587680262 0.028910204691039856 -0.033799541073975925 0.068037818451565299 0.053457269022145738 -0.061119588243674944 0.063653173664027715 -0.054348823592441933 0.042113760177886254 0.0023549787632124335 0.04005905325506174 0.044118193182677012 -0.014978786810608147 -0.056114125640800427 0.066204517626916426 -0.021883840583767241 -0.023606716921750565 0.082398936956517704 0.021465379708913292 0.006707836771717969 -0.0395116547986957
leaf_weight=832.33627259731293 2536.4172068685293 1192.9724953919649 2463.4152126163244 588.48442815244198 514.41696166992188 607.65058337152004 76.855927467346191 469.48178166151047 220.38001658022404 822.82805760204792 386.91940781474113 411.1089648604393 204.91739203035831 43.742906004190445 1687.6583572775126 32.763462260365486 255.08426398038864 107.66948093473911 105.3853962123394 311.66951748728752 29.813539832830429 159.45808129012585 159.27700674533844 62.370723083615303 63.09929034113884 411.40966674685478 116.62303796410561 218.74173691868782 70.518323346972466 248.45705923438072
leaf_count=3354 16289 6447 9937 3064 2694 2774 333 2870 963 3317 1674 2325 849 183 11071 156 1609 488 619 1302 120 756 952 288 344 1976 468 949 320 1509
internal_value=0 0.0310026 0.0476128 0.0313627 0.041065 0.0312259 -0.0439399 -0.0202889 -0.00384289 0.0454511 0.0621231 -0.0201595 0.0316331 -0.0348685 -0.0508951 -0.0456436 -0.0224357 -0.00596612 -0.0193563 0.0194976 -0.0327647 -0.000246615 -0.0288632 -0.0207741 0.0219046 -0.0392534 0.0522822 0.0439918 -0.033691 -0.0270425
internal_weight=0 8975.92 7168.33 4704.92 4086.62 3254.29 6436.01 1462.57 993.092 2669.35 1209.75 772.712 1459.6 1807.58 4973.44 3285.78 749.36 494.275 386.606 919.32 618.298 203.201 695.856 536.579 125.47 1604.38 540.282 423.659 584.935 353.842
internal_count=80000 40184 30822 20885 17701 14347 39816 8075 5205 11333 4991 4242 6342 9362 31741 20670 4381 2772 2284 4076 3184 939 3909 2957 632 8423 2266 1798 3014 2128
is_linear=0
shrinkage=0.05


Tree=11
num_leaves=31
num_cat=0
split_feature=5 10 10 10 10 10 10 10 10 10 10 0 0 0 10 10 10 10 0 1 0 1 0 0 0 0 1 0 1 1
split_gain=7750.56 3554.55 1300.26 1057.54 558.535 1082.18 323.789 571.936 262.329 222.507 229.318 111.324 96.1718 68.7271 61.6634 119.935 88.5806 164.385 44.6199 41.0921 40.3368 35.5478 31.2158 30.9123 28.8972 28.1435 23.8055 20.8985 18.9327 18.4852
threshold=1.0000000180025095e-35 0.84796722196426455 0.48624279369107543 1.0000000180025095e-35 -1.568660639240955 -1.4817802703929612 0.84796722196426455 0.48624279369107543 -1.568660639240955 -0.79252410101829851 -0.54006083955625683 0.70907510266359075 0.70907510266359075 0.70907510266359075 -1.4817802703929612 1.0000000180025095e-35 -0.79252410101829851 -0.54006083955625683 0.70907510266359075 0.085473072434714359 0.75991633940619507 0.085473072434714359 0.70907510266359075 0.70907510266359075 0.70907510266359075 0.70907510266359075 0.085473072434714359 0.75991633940619507 0.085473072434714359 0.085473072434714359
decision_type=2 2 2 2 2 2 2 2 2 2 2 2 2 2 2 2 2 2 2 2 2 2 2 2 2 2 2 2 2 2
left_child=1 2 3 4 -1 25 7 8 18 12 -11 21 19 -3 -10 16 27 20 -2 -7 26 -9 28 -5 -4 -6 -18 -16 -12 -15
right_child=6 13 24 23 5 9 -8 11 14 10 22 -13 -14 29 15 -17 17 -19 -20 -21 -22 -23 -24 -25 -26 -27 -28 -29 -30 -31
leaf_value=0.075560179921261822 -0.0063996965131363276 -0.039483811507887163 0.070589336240448414 -0.037983696372604965 -0.03911561611117112 0.011996796328153286 -0.057783804222247263 -0.022890526353160523 -0.058107398614627548 0.073825065977581372 0.0050556904519654302 0.036002852101175084 0.049331195197791271 -0.026286283988859061 -0.046314206561674169 -0.057774408600609166 -0.019034256419359057 -0.042143946202124215 0.040835860569757063 0.032085320514637507 0.050996627679711415 0.0070660435379138499 0.048061485631952859 -0.01154279641934108 0.081826891533304927 -0.013905432546228148 0.02316135386546804 -0.030342097382233577 0.0317630682925234 -0.0060189303300739461
leaf_weight=832.29757060110569 142.09180054068565 1323.4787009060383 1560.4374221265316 462.79518845677376 425.68275064229965 539.88451690971851 2323.0272486209869 188.17709977924824 822.56187359988689 823.1298635751009 140.88053123652935 240.04492776095867 444.45503363013268 243.24084977805614 727.64023683965206 792.70888552069664 63.872769311070442 249.95433349907398 77.135982692241669 481.69821174442768 65.20515900850296 209.04035371541977 123.33938811719418 145.22776472568512 903.19329093396664 149.61367796361446 70.12217403948307 285.02134183049202 125.44446757435799 209.31993581354618
leaf_count=3354 722 7181 6309 2459 2269 2410 15753 989 5399 3317 615 1166 1822 1182 4636 5244 367 1568 381 2110 354 1078 518 725 3628 745 397 1762 541 999
internal_value=0 0.029583 0.0452926 0.0298549 0.039009 0.0296604 -0.0429825 -0.0342415 -0.0426244 0.0430225 0.0588659 0.00912013 0.0299159 -0.0337322 -0.0463893 -0.042114 -0.0336217 -0.0151406 0.0102203 0.021469 0.0187429 -0.00712553 0.0272661 -0.0316682 0.0747091 -0.0325594 0.00304753 -0.0418187 0.0176354 -0.0169122
internal_weight=0 8934.12 7158.08 4694.45 4086.43 3254.13 6256.6 3933.58 3296.31 2678.83 1212.79 637.262 1466.04 1776.04 3077.09 2254.52 1461.82 449.154 219.228 1021.58 199.2 397.217 389.664 608.023 2463.63 575.296 133.995 1012.66 266.325 452.561
internal_count=80000 40184 30822 20885 17701 14347 39816 24063 20830 11333 4991 3233 6342 9362 19727 14328 9084 2686 1103 4520 1118 2067 1674 3184 9937 3014 764 6398 1156 2181
is_linear=0
shrinkage=0.05


Tree=12
num_leaves=31
num_cat=0
split_feature=5 10 10 10 10 10 9 10 10 10 10 10 9 6 9 10 10 9 10 0 9 10 10 0 6 9 6 9 10 10
split_gain=7134.99 3220.33 1177.68 955.85 507.819 974.689 414.839 310.374 311.825 203.52 210.708 181.98 135.086 109.611 205.976 147.025 105.817 105.304 83.9736 81.2141 68.8184 58.8173 110.257 57.8495 53.8937 68.7555 53.5486 143.59 85.0385 90.5324
threshold=1.0000000180025095e-35 0.84796722196426455 0.48624279369107543 1.0000000180025095e-35 -1.568660639240955 -1.4817802703929612 0.74652882003854404 0.84796722196426455 0.48624279369107543 -0.79252410101829851 -0.54006083955625683 -1.568660639240955 1.2851093426307794 0.13754104979740808 -0.12538069654044226 0.84796722196426455 0.48624279369107543 1.3786243797727089 -1.568660639240955 0.70907510266359075 1.6059345435461938 1.0000000180025095e-35 -1.4817802703929612 0.70907510266359075 0.84858173901496559 1.6059345435461938 -0.91922558952885891 -0.70969903405724244 0.84796722196426455 0.48624279369107543
decision_type=2 2 2 2 2 2 2 2 2 2 2 2 2 2 2 2 2 2 2 2 2 2 2 2 2 2 2 2 2 2
left_child=1 2 3 4 -1 -6 13 8 11 12 -11 -8 19 14 26 16 18 23 -16 -7 -5 22 -13 -3 -24 -26 27 -2 29 -29
right_child=6 17 -4 20 5 9 7 -9 -10 10 -12 21 -14 -15 15 -17 -18 -19 -20 -21 -22 -23 24 -25 25 -27 -28 28 -30 -31
leaf_value=0.07199607114621194 -0.056394999291202147 -0.041130443462871917 0.071178528974542229 -0.034443609369431999 -0.031442323982390684 0.014262548637927029 0.054233385192692399 -0.053121984742782208 0.049313291886332197 0.070305094166678614 0.025746430570064156 -0.052205320084433265 0.068447824662597259 -0.059927570600923775 0.058194014303878744 -0.052458092774871047 0.038816555566799173 0.017996784644511821 -0.024590755018546823 0.041515252655165077 0.043454378455705656 -0.054125916128766841 0.020556134714787858 -0.019784276357245681 -0.048419883089362792 0.0092363551227776629 -0.05918510563050209 -0.020508207731020415 -0.051233965307960309 0.046039337621725282
leaf_weight=829.87818039953709 850.23805812001228 1220.5943969935179 2456.7007788568735 568.96395415067673 566.21186342835426 898.09447886049747 78.105883479118347 438.53539228439331 223.92178197205067 821.16648481786251 391.94606068730354 165.04021528363228 183.11251330375671 1574.3298659473658 33.674082472920418 237.93389409780502 109.38096414506435 97.113807007670403 339.13313327729702 392.99411001801491 29.839518964290619 148.91613155603409 146.066315934062 428.93150563538074 101.72690844535828 105.16078215837479 1059.9206610172987 245.71608494222164 163.41327267885208 64.528292566537857
leaf_count=3354 5841 6845 9937 3064 3014 3997 333 2870 963 3317 1674 1010 742 11071 156 1609 488 426 2128 1603 120 952 803 2091 597 547 7369 1619 1146 314
internal_value=0 0.0282535 0.0431425 0.0284323 0.0370834 0.0281782 -0.0420209 -0.018221 -0.002425 0.0407401 0.0559086 -0.0179754 0.028258 -0.0491812 -0.0437306 -0.0202961 -0.0044259 -0.0326009 -0.0171132 0.022558 -0.0305618 -0.0264323 -0.0184707 -0.0355797 -0.00269651 -0.0191133 -0.0508099 -0.0441046 -0.0220426 -0.00666686
internal_weight=0 8885.55 7138.91 4682.21 4083.4 3253.53 6085.74 1407.47 968.938 2687.31 1213.11 745.016 1474.2 4678.27 3103.94 720.122 482.188 1746.64 372.807 1291.09 598.803 666.91 517.994 1649.53 352.954 206.888 2383.82 1323.9 473.658 310.244
internal_count=80000 40184 30822 20885 17701 14347 39816 8075 5205 11333 4991 4242 6342 31741 20670 4381 2772 9362 2284 5600 3184 3909 2957 8936 1947 1144 16289 8920 3079 1933
is_linear=0
shrinkage=0.05


Tree=13
num_leaves=31
num_cat=0
split_feature=5 10 10 10 10 10 10 10 10 10 10 0 0 0 10 10 10 10 0 1 0 1 0 0 0 0 1 0 1 1
split_gain=6578.72 2923.32 1070.37 865.594 463.512 879.663 314.12 507.823 237.659 186.147 194.824 97.3019 78.2144 62.615 61.7791 118.943 85.5036 153.293 39.1605 36.3353 35.2988 32.1894 29.6702 28.7127 27.6499 27.0862 21.674 20.9279 18.923 18.4486
threshold=1.0000000180025095e-35 0.84796722196426455 0.48624279369107543 1.0000000180025095e-35 -1.568660639240955 -1.4817802703929612 0.84796722196426455 0.48624279369107543 -1.568660639240955 -0.79252410101829851 -0.54006083955625683 0.70907510266359075 0.70907510266359075 0.70907510266359075 -1.4817802703929612 1.0000000180025095e-35 -0.79252410101829851 -0.54006083955625683 0.70907510266359075 0.085473072434714359 0.75991633940619507 0.085473072434714359 0.70907510266359075 0.70907510266359075 0.70907510266359075 0.70907510266359075 0.085473072434714359 0.75991633940619507 0.085473072434714359 0.085473072434714359
decision_type=2 2 2 2 2 2 2 2 2 2 2 2 2 2 2 2 2 2 2 2 2 2 2 2 2 2 2 2 2 2
left_child=1 2 3 4 -1 25 7 8 18 12 -11 21 19 28 -10 16 27 20 -2 -7 26 -9 -5 29 -12 -6 -18 -16 -3 -4
right_child=6 13 23 22 5 9 -8 11 14 10 24 -13 -14 -15 15 -17 17 -19 -20 -21 -22 -23 -24 -25 -26 -27 -28 -29 -30 -31
leaf_value=0.068773184875773483 -0.0061505661962447285 -0.042466417143458252 0.058092494510983743 -0.035867253732762262 -0.03693226415978431 0.010280904650713629 -0.056344922446092786 -0.02219483930078189 -0.056651264329481282 0.067115297041169864 0.015291990120256999 0.033264547619456485 0.044179114570834253 -0.015405381796607432 -0.044485473705746924 -0.056331886427545858 -0.017012082571838671 -0.040179168896449416 0.038053653770787746 0.029088385271111978 0.049368021937246001 0.0064525519255943633 -0.009652391117277075 0.075121293081032006 0.043747690138186468 -0.011899111200667521 0.023634174753128234 -0.028131239535882327 -0.03013773205233778 0.069013545293370157
leaf_weight=825.43718320131302 140.65113532543182 726.22884722054005 731.58118635416031 446.65381681919098 410.89011032879353 543.47084094583988 2155.3274912089109 185.04181154072285 767.07076600193977 817.27775855362415 269.14142203330994 242.19018152356148 448.70825257897377 445.87253226339817 689.40145520865917 739.06926648318768 61.975616186857224 237.69066381454468 77.825561925768852 486.86843799054623 65.710752502083778 208.60012789070606 142.33059038221836 892.30301401019096 125.02382691204548 146.61582389473915 69.662674605846405 273.11039762198925 544.66897530853748 820.2928105443716
leaf_count=3354 722 4146 2976 2459 2269 2410 15753 989 5399 3317 1156 1166 1822 2181 4636 5244 367 1568 381 2110 354 1078 725 3628 518 745 397 1762 3035 3333
internal_value=0 0.0270284 0.0411739 0.0271242 0.0353163 0.0268136 -0.0411281 -0.0324008 -0.0406953 0.0386584 0.0531903 0.00832826 0.0267558 -0.0315268 -0.0444793 -0.0401094 -0.0315304 -0.0131347 0.00959582 0.019168 0.0194381 -0.00701391 -0.0295323 0.0679745 0.0243177 -0.0303489 0.00449782 -0.039845 -0.0371827 0.0638652
internal_weight=0 8823.37 7106.6 4662.42 4073.43 3248 5913.33 3758 3122.17 2690.49 1211.44 635.832 1479.05 1716.77 2903.69 2136.62 1397.55 435.04 218.477 1030.34 197.349 393.642 588.984 2444.18 394.165 557.506 131.638 962.512 1270.9 1551.87
internal_count=80000 40184 30822 20885 17701 14347 39816 24063 20830 11333 4991 3233 6342 9362 19727 14328 9084 2686 1103 4520 1118 2067 3184 9937 1674 3014 764 6398 7181 6309
is_linear=0
shrinkage=0.05


Tree=14
num_leaves=31
num_cat=0
split_feature=5 10 10 10 10 10 9 10 10 9 10 10 10 7 9 10 9 7 9 7 9 10 10 7 9 10 7 9 9 9
split_gain=6064.42 2656.11 978.256 784.31 425.207 794.261 406.221 287.369 262.047 185.852 158.754 181.028 156.037 112.334 204.471 137.558 104.464 100.266 86.5481 79.8898 63.8678 56.3694 102.349 54.4813 142.985 79.8674 75.9588 62.6004 52.7879 52.1539
threshold=1.0000000180025095e-35 0.84796722196426455 0.48624279369107543 1.0000000180025095e-35 -1.568660639240955 -1.4817802703929612 0.74652882003854404 0.84796722196426455 0.48624279369107543 1.2851093426307794 -0.79252410101829851 -0.54006083955625683 -1.568660639240955 0.12253385869392415 -0.12538069654044226 0.84796722196426455 0.76608424087067029 -0.63268938291054566 0.43331403938536572 0.61738342891928022 1.6059345435461938 1.0000000180025095e-35 -1.4817802703929612 -0.91922553132802676 -0.70969903405724244 0.84796722196426455 -1.4175714454609813 -0.37749318519777697 1.7308427380237343 1.3181436633495773
decision_type=2 2 2 2 2 2 2 2 2 2 2 2 2 2 2 2 2 2 2 2 2 2 2 2 2 2 2 2 2 2
left_child=1 2 3 4 -1 29 13 8 12 10 -7 -12 -8 14 23 17 -3 -16 -19 -18 -5 22 -14 24 -2 26 -26 -28 -21 -6
right_child=6 16 -4 20 5 9 7 -9 -10 -11 11 -13 21 -15 15 -17 19 18 -20 28 -22 -23 -24 -25 25 -27 27 -29 -30 -31
leaf_value=0.0658370358458331 -0.055088310611155183 -0.035531505463782809 0.065062559504116921 -0.032354561503087596 -0.033318459896132448 0.019889716115541797 0.05033489597732254 -0.05129513385739215 0.045730336369232044 0.069581987227281969 0.061396078658637915 0.016940176005790595 -0.050118103363105238 -0.058786126857074697 0.031461402556988212 -0.050590216446937369 0.0560099309564017 -0.034366715959080023 0.024489931838399651 -0.028126329366485639 0.042723355346165615 -0.052279238299513899 -0.0011841331855988635 -0.058051355881213254 0.043437067828688475 -0.04948571718021616 -0.035422990864467124 0.019660462079452309 0.037138426011361879 0.029784778037679871
leaf_weight=819.28947465121746 794.96565280854702 1448.0122511684895 2426.3454382717609 550.39124990999699 513.91298162937164 1303.4376442879438 79.100656390190125 408.9443396627903 226.78489775955677 370.47929416596889 671.40950360894203 347.52451322972775 154.55996868014336 1484.30613976717 147.79348441958427 219.31169235706329 50.397289827466011 230.59959185123444 85.663623183965683 151.53362496197224 29.863798141479492 138.97120574116707 346.22658307850361 979.34460708498955 63.722488850355148 152.04462404549122 163.17911502718925 75.418023273348808 38.945263221859932 34.971522510051727
leaf_count=3354 5841 8183 9937 3064 2858 5600 333 2870 963 1528 2726 1479 1010 11195 826 1592 226 1426 480 793 120 952 1947 7302 390 1146 1078 465 160 156
internal_value=0 0.0258734 0.0393348 0.025885 0.0336543 0.0255208 -0.040215 -0.016275 -0.00113052 0.0366945 0.031448 0.0462336 -0.0159141 -0.0475913 -0.0418852 -0.0179585 -0.0304597 -0.0025369 -0.0184247 2.91845e-05 -0.0284906 -0.0241053 -0.0162868 -0.0492217 -0.0423003 -0.019926 -0.00505962 -0.0180117 -0.0147823 -0.0292979
internal_weight=0 8756.51 7067.63 4641.28 4061.02 3241.74 5750.94 1354.59 945.643 2692.85 2322.37 1018.93 718.858 4396.35 2912.04 683.368 1688.89 464.057 316.263 240.876 580.255 639.758 500.787 2228.67 1249.33 454.364 302.32 238.597 190.479 548.885
internal_count=80000 40184 30822 20885 17701 14347 39816 8075 5205 11333 9805 4205 4242 31741 20546 4324 9362 2732 1906 1179 3184 3909 2957 16222 8920 3079 1933 1543 953 3014
is_linear=0
shrinkage=0.05


Tree=15
num_leaves=31
num_cat=0
split_feature=5 10 10 10 10 10 10 10 10 10 10 10 10 10 10 1 1 1 1 1 1 1 8 2 2 1 2 1 2 1
split_gain=5596.76 2416.94 896.042 711.7 391.136 718.254 305.553 461.025 218.251 159.512 168.881 61.8029 117.696 82.0503 142.155 46.5356 37.2324 28.9021 24.7311 19.0832 17.2622 16.2604 17.8063 11.9042 11.6201 11.2596 10.805 10.5843 8.94771 8.59403
threshold=1.0000000180025095e-35 0.84796722196426455 0.48624279369107543 1.0000000180025095e-35 -1.568660639240955 -1.4817802703929612 0.84796722196426455 0.48624279369107543 -1.568660639240955 -0.79252410101829851 -0.54006083955625683 -1.4817802703929612 1.0000000180025095e-35 -0.79252410101829851 -0.54006083955625683 0.085473072434714359 0.085473072434714359 0.085473072434714359 0.085473072434714359 -0.24537549221609853 0.085473072434714359 0.25089735476012082 1.39535665606381 -1.7010378722443087 -1.6862502815748013 0.085473072434714359 -1.6723798662830001 0.085473072434714359 1.6808553622711135 0.085473072434714359
decision_type=2 2 2 2 2 2 2 2 2 2 2 2 2 2 2 2 2 2 2 2 2 2 2 2 2 2 2 2 2 2
left_child=1 2 3 4 25 -6 7 8 19 15 -11 -10 13 27 21 24 26 -9 -12 -2 -5 22 -15 -17 -7 -1 -3 -13 -22 -4
right_child=6 16 29 20 5 9 -8 17 11 10 18 12 -14 14 -16 23 -18 -19 -20 -21 28 -23 -24 -25 -26 -27 -28 -29 -30 -31
leaf_value=0.057009853869121219 -0.0091398212391026919 0.011849575542785569 0.059273809949945258 -0.035132919907349666 -0.028294698446186841 0.06637946538263155 -0.055033618190993353 -0.0029424505662605806 -0.05535960876056694 0.06159422518391855 0.010093285956087755 -0.043140461040547105 -0.055057098046077974 -0.00077995270462821492 -0.038382363100944158 0.099907703531546987 -0.020993474815756547 0.018470440807385403 0.035101639563824692 0.021243782336389513 -0.0187978943080605 0.035299774574552918 0.064913866366558604 0.032642467764890347 0.014845624955867862 0.068797362083840199 -0.036684178084553147 -0.032384388913035723 0.05720780194236226 0.065256252476106891
leaf_weight=389.30706341564655 84.860469996929169 11.612630888819693 1156.6401706337929 323.20716717839241 540.20089374482632 11.095509633421896 1996.6061490178108 303.93994782865047 715.32158270478249 804.93229222297668 212.04060778021812 481.57525554299355 689.27343166619539 94.052976682782173 226.64160339534283 6.6400855630636206 729.78678938746452 327.26774819195271 185.20586559176445 132.16561280190945 243.78988316655159 90.546342194080353 11.585512697696684 697.59816138446331 773.97830840945244 422.40426149964333 919.05443933606148 435.59383234381676 3.9347148686647406 1248.101512953639
leaf_count=1608 441 67 4773 1816 3014 47 15753 1584 5399 3317 899 3364 5244 548 1568 28 4034 1649 775 662 1347 506 64 2941 3326 1746 5261 3034 21 5164
internal_value=0 0.0247992 0.0376323 0.0247357 0.0321144 0.0243207 -0.0393516 -0.0306368 -0.0389055 0.034881 0.0484291 -0.0427223 -0.0382676 -0.0296314 -0.0114091 0.0239449 -0.0294485 0.00815968 0.0217528 0.00936334 -0.0275214 0.0197516 0.00642478 0.0332767 0.015574 0.0631439 -0.0360786 -0.038032 -0.0175907 0.0623788
internal_weight=0 8679.53 7019.08 4614.33 4043.4 3231.69 5589.43 3592.82 2961.62 2691.49 1202.18 2744.59 2029.27 1340 422.826 1489.31 1660.45 631.208 397.246 217.026 570.932 196.185 105.638 704.238 785.074 811.711 930.667 917.169 247.725 2404.74
internal_count=80000 40184 30822 20885 17701 14347 39816 24063 20830 11333 4991 19727 14328 9084 2686 6342 9362 3233 1674 1103 3184 1118 612 2969 3373 3354 5328 6398 1368 9937
is_linear=0
shrinkage=0.05


Tree=16
num_leaves=31
num_cat=0
split_feature=5 10 10 10 10 10 10 10 10 10 10 0 0 0 10 10 10 10 0 0 0 0 1 1 0 0 0 1 1 1
split_gain=5162.56 2199.77 824.534 645.756 361.434 649.312 301.855 434.067 206.842 148.085 157.863 85.7242 71.4424 62.5397 61.5006 116.135 77.8202 130.947 34.481 30.2837 30.2708 28.9392 28.7504 27.0304 26.5024 24.7349 21.4305 18.0299 17.6861 17.1627
threshold=1.0000000180025095e-35 0.84796722196426455 0.48624279369107543 1.0000000180025095e-35 -1.568660639240955 -1.4817802703929612 0.84796722196426455 0.48624279369107543 -1.568660639240955 -0.79252410101829851 -0.54006083955625683 0.70907510266359075 0.70907510266359075 0.70907510266359075 -1.4817802703929612 1.0000000180025095e-35 -0.79252410101829851 -0.54006083955625683 0.70907510266359075 0.75991633940619507 0.70907510266359075 0.70907510266359075 0.085473072434714359 0.085473072434714359 0.70907510266359075 0.70907510266359075 0.75991633940619507 0.085473072434714359 0.085473072434714359 0.085473072434714359
decision_type=2 2 2 2 2 2 2 2 2 2 2 2 2 2 2 2 2 2 2 2 2 2 2 2 2 2 2 2 2 2
left_child=1 2 3 4 -1 24 7 8 18 12 -11 23 22 28 -10 16 26 19 -2 27 29 -5 -7 -9 -6 -12 -16 -18 -3 -4
right_child=6 13 20 21 5 9 -8 11 14 10 25 -13 -14 -15 15 -17 17 -19 -20 -21 -22 -23 -24 -25 -26 -27 -28 -29 -30 -31
leaf_value=0.06066084688082557 -0.0060586709394234821 -0.039568004652731338 0.050032155388213706 -0.032987494742252689 -0.034016666526192188 0.0076029941632851086 -0.054412410274288517 -0.02096371646836831 -0.054690874656237246 0.059116268254240094 0.012096840374308422 0.03100170600252666 0.039295559015813622 -0.012081422523293644 -0.041961509247849998 -0.05439223887096422 -0.015430888202264856 -0.037400839876769246 0.035395509917168631 0.04592392719313982 0.067378471934474438 -0.0066205800920877246 0.024218409449970061 0.0054440837990952576 -0.0087802878476954966 0.03885606859393239 -0.024847588678486788 0.021769468228925604 -0.027335510389555367 0.060684953844419701
leaf_weight=802.91607709228992 139.35327729582787 683.23237138986588 717.20570865273476 425.0470016002655 390.42477121949196 549.33872520923615 1920.3647362142801 180.89747054874897 688.54434009641409 796.94097264111042 272.32885238528252 243.47207048535347 450.73601125180721 430.94920709729195 638.41379529237747 663.46871272474527 60.494489297270775 221.10226765275002 78.376060768961906 66.992726862430573 862.78679998219013 137.80498757958412 494.90700830519199 208.68844853341579 141.82367037236691 126.45989510416985 256.38885419070721 70.566172093153 520.67385211586952 799.64306131005287
leaf_count=3354 722 4146 2976 2459 2269 2410 15753 989 5399 3317 1156 1166 1822 2181 4636 5244 367 1568 381 354 3628 725 2110 1078 745 518 1762 397 3035 3333
internal_value=0 0.0237713 0.0360175 0.0236319 0.0306453 0.0231677 -0.0384696 -0.0297639 -0.0379944 0.0331491 0.0462648 0.00772739 0.0226587 -0.0284267 -0.0418212 -0.03734 -0.0287297 -0.0109509 0.0088636 0.0185772 0.0599011 -0.026532 0.0154777 -0.00681792 -0.0272921 0.0205825 -0.0370578 0.00459867 -0.0342776 0.055648
internal_weight=0 8603.22 6968.36 4588.73 4025.88 3222.96 5437.12 3516.76 2883.7 2690.71 1195.73 633.058 1494.98 1634.86 2665.97 1977.43 1313.96 419.156 217.729 198.053 2379.64 562.852 1044.25 389.586 532.248 398.789 894.803 131.061 1203.91 1516.85
internal_count=80000 40184 30822 20885 17701 14347 39816 24063 20830 11333 4991 3233 6342 9362 19727 14328 9084 2686 1103 1118 9937 3184 4520 2067 3014 1674 6398 764 7181 6309
is_linear=0
shrinkage=0.05


Tree=17
num_leaves=31
num_cat=0
split_feature=5 0 1 0 1 1 2 2 2 1 6 8 8 2 0 6 6 2 8 8 6 2 8 2 6 6 8 2 6 8
split_gain=4764.72 443.009 195.565 144.001 41.2609 40.7928 26.5056 23.1458 17.7251 14.7303 11.6554 9.65609 10.3233 9.56084 7.91467 7.29564 7.05007 5.81832 6.97433 6.347 5.87361 5.79365 5.7655 6.69037 5.47493 6.87812 5.88973 5.92378 5.65489 5.31937
threshold=1.0000000180025095e-35 0.70907510266359075 0.085473072434714359 0.70907510266359075 0.085473072434714359 0.085473072434714359 -1.7010378722443087 -1.7010378722443087 -1.7010378722443087 0.25089735476012082 0.66887672709891299 0.13684094210361433 0.34372023754912595 -1.7010378722443087 0.09898026175233908 0.58883774347235729 0.53213037568624444 -1.5225375653402518 1.4068499502552274 -1.2078744782922108 -1.0315853152913697 1.6268749755675489 -1.3285540673020926 0.96122012902088005 -0.094238519005798049 0.76523963728528954 0.085121118242236435 -1.5491230369960267 -0.51155444665655281 1.625222539892156
decision_type=2 2 2 2 2 2 2 2 2 2 2 2 2 2 2 2 2 2 2 2 2 2 2 2 2 2 2 2 2 2
left_child=1 2 7 4 -2 13 -5 -1 -4 -8 -9 22 -13 -3 15 16 17 18 20 21 -10 -19 23 -12 26 -26 27 -16 -28 -15
right_child=3 5 8 6 -6 -7 9 10 14 -11 11 12 -14 29 24 -17 -18 19 -20 -21 -22 -23 -24 -25 25 -27 28 -29 -30 -31
leaf_value=0.052745068571582066 -0.048188432043627216 0.083150359251361425 0.066517893311115933 0.040099708214916013 -0.03758023802162061 0.045953235810982457 -0.02997389060054825 0.0078689770069024362 0.063809192274646348 -0.020287709638318763 -0.011105948372018571 -0.024504767695509296 -0.0013585481908359907 0.033835973907452944 -0.02632624968307545 0.01833094431972215 0.048217559058056143 0.016612508217356044 -0.018731783324188192 0.024838181762245785 0.032225045312875122 -0.035738868846888462 0.0088147286386626028 0.020064329937196163 0.01786874439928892 0.031234788492427942 0.034715868184149151 0.028510711782041006 0.05608836268962001 0.015640032554943461
leaf_weight=26.460789829492569 1906.0157592147589 9.6824060231447202 24.898508846759796 15.402774117887018 1765.8716280981898 1298.9836218208075 912.02396232634783 2057.8550939708948 21.139080658555031 689.05278337001801 81.339591220021248 55.082430049777031 384.00458428263664 1342.9785609990358 5.0795904994010916 678.90828640758991 31.018779516220093 197.64624013006687 5.1048244237899771 1093.2000099420547 48.474987521767616 5.4300909787416449 381.11788646876812 21.836680486798286 189.88382075726986 195.19193887710571 119.82702341675758 161.65575987100601 41.726908907294273 41.403631433844566
leaf_count=122 14812 42 109 101 13356 5743 6613 10185 97 4934 403 279 1893 6017 26 3222 146 949 23 5170 229 26 1876 105 903 917 560 764 193 185
internal_value=0 0.0228074 0.0150563 -0.0376124 -0.0430868 0.0395783 -0.0251773 0.00618801 0.0245177 -0.0258053 0.00577478 0.00110763 -0.00426219 0.0336381 0.0241434 0.0225854 0.0246456 0.0241123 0.0376793 0.0233302 0.0418159 0.0152127 0.00597619 -0.00450893 0.0286883 0.0246439 0.0334324 0.0268401 0.0402361 0.0332918
internal_weight=0 8519.93 5826.88 5288.37 3671.89 2693.05 1616.48 3007.7 2819.19 1601.08 2981.24 923.381 439.087 1394.06 2794.29 2080.92 1402.01 1371 74.7189 1296.28 69.6141 203.076 484.294 103.176 713.365 385.076 328.289 166.735 161.554 1384.38
internal_count=80000 40184 28197 39816 28168 11987 11648 14863 13334 11547 14741 4556 2172 6244 13225 9862 6640 6494 349 6145 326 975 2384 508 3363 1820 1543 790 753 6202
is_linear=0
shrinkage=0.05


Tree=18
num_leaves=31
num_cat=0
split_feature=5 9 9 0 9 6 6 9 6 6 9 0 6 9 6 9 9 6 9 9 6 6 9 6 9 9 6 0 9 6
split_gain=4369.52 690.163 415.878 344.105 178.926 347.102 170.457 275.895 123.841 122.832 211.107 113.577 103.198 97.6892 90.6179 86.5343 86.3238 211.363 70.2181 62.2116 62.3564 59.8221 147.45 77.2051 59.8408 53.4335 94.2611 52.4031 51.7988 74.6289
threshold=1.0000000180025095e-35 0.55256017385654277 0.74652882003854404 0.70907510266359075 1.6878868386702173 0.39765371886461698 -0.11892581025580366 -0.20034854874008576 -0.63268938322911994 0.13754104979740808 -0.12538069654044226 0.8107575761487994 1.1506217661031708 1.0103648309774675 -0.63268938322911994 0.15376581192878261 -0.90130949248127423 -1.3199022320688079 0.43331403938536572 -0.70969903405724244 -1.5277514761958575 -0.90569232101654651 -0.70969903405724244 -1.4175714651602378 -0.37749318519777697 1.6878868386702173 0.60292099498373741 0.70907510266359075 1.5026188604750821 0.63101364760904921
decision_type=2 2 2 2 2 2 2 2 2 2 2 2 2 2 2 2 2 2 2 2 2 2 2 2 2 2 2 2 2 2
left_child=1 3 9 6 5 -3 7 16 -9 10 21 28 13 -7 -12 -10 -1 19 -16 20 -18 22 -2 -24 -25 26 -13 -20 29 -4
right_child=2 4 11 -5 -6 12 -8 8 15 -11 14 25 -14 -15 18 -17 17 -19 27 -21 -22 -23 23 24 -26 -27 -28 -29 -30 -31
leaf_value=-0.010034008309915016 -0.053003284480696522 0.071027499616687015 -0.0078643209340512419 0.030259311311782978 0.067707134351159978 0.012966150667750413 -0.0070549610599067447 0.072110279226401869 0.0017700128001114021 -0.057325939598184043 0.01529318604190001 0.039279661068992083 0.003169186707510676 0.053949424233116154 -0.037583334740633072 0.054820544563960308 0.055893121912225778 0.00053918455703005333 -0.016264450779070069 0.068434424201046701 -0.0010646562352255393 -0.056533556693913516 0.027294703356340624 -0.04015251678893253 0.0050733472735169979 0.035997905080037924 -0.028042961060883737 0.054882592282164994 -0.0083124904152669082 -0.048597053894010846
leaf_weight=660.28888934850693 707.45279135555029 496.08544336259365 185.47986669838428 2019.3554754108191 651.22075854241848 276.81485836207867 1703.0907750427723 235.82449595630169 181.83428397774696 1287.180884629488 191.90652418881655 82.245470628142357 478.86804805696011 306.28636901080608 329.4644399061799 133.16103228926659 92.28141875565052 1034.5713784992695 76.981423370540142 159.83220820128918 100.2587229013443 850.18647895753384 83.569740533828735 238.51688145846128 105.49008737504482 141.30761201679707 141.35481893271208 38.989379599690437 413.71938861906528 285.598731726408
leaf_count=3299 5893 2197 1242 8999 2858 1311 8580 1059 890 11071 1224 456 2258 1371 2414 602 426 5122 529 713 499 7218 575 1857 746 750 955 214 2602 2070
internal_value=0 0.0216415 -0.0366502 0.0132328 0.0456977 0.0364984 0.00523898 0.013298 0.04471 -0.0446758 -0.038467 -0.0115416 0.0203686 0.0344935 -0.0134304 0.0241966 0.00484638 0.0119306 -0.0258053 0.0453758 0.0262343 -0.0465049 -0.038993 -0.015812 -0.026284 0.01193 -0.00328011 0.00765518 -0.0212218 -0.0325592
internal_weight=0 8529.77 5159.44 6320.5 2209.28 1558.05 4301.14 2598.05 550.82 3909.74 2622.56 1249.71 1061.97 583.101 637.342 314.995 2047.23 1386.94 445.435 352.372 192.54 1985.22 1135.03 427.577 344.007 364.908 223.6 115.971 884.798 471.079
internal_count=80000 40184 39816 30189 9995 7137 21190 12610 2551 31741 20670 8075 4940 2682 4381 1492 10059 6760 3157 1638 925 16289 9071 3178 2603 2161 1411 743 5914 3312
is_linear=0
shrinkage=0.05


Tree=19
num_leaves=31
num_cat=0
split_feature=5 10 10 10 9 10 10 10 10 9 10 10 10 6 9 10 9 6 9 6 6 9 10 6 9 9 10 10 6 9
split_gain=4020.43 1968.2 768.254 574.278 402.18 338.135 576.037 268.088 203.461 169.023 127.34 125.081 147.471 123.258 200.98 127.737 93.7744 88.3824 73.7574 68.1227 60.0525 144.071 76.7692 69.1932 65.229 56.675 55.5947 94.7048 52.5746 51.8278
threshold=1.0000000180025095e-35 0.84796722196426455 0.48624279369107543 1.0000000180025095e-35 0.72615976767031476 -1.568660639240955 -1.4817802703929612 0.84796722196426455 0.48624279369107543 1.2851093426307794 -1.568660639240955 -0.79252410101829851 -0.54006083955625683 0.13754104979740808 -0.12538069654044226 0.84796722196426455 0.76608424087067029 -0.63268938322911994 0.43331403938536572 0.61738342875773622 -0.90569232101654651 -0.70969903405724244 0.84796722196426455 -1.2929047827658691 -0.44434765754951261 1.3786243797727089 1.0000000180025095e-35 -1.4817802703929612 1.0406497509519583 1.6059345435461938
decision_type=2 2 2 2 2 2 2 2 2 2 2 2 2 2 2 2 2 2 2 2 2 2 2 2 2 2 2 2 2 2
left_child=1 2 3 5 13 -1 -7 8 10 11 -6 -8 -13 14 20 17 -3 -16 -19 -18 21 -2 23 -23 -25 -5 27 -12 -29 -30
right_child=4 16 -4 25 7 6 9 -9 -10 -11 26 12 -14 -15 15 -17 19 18 -20 -21 -22 22 -24 24 -26 -27 -28 28 29 -31
leaf_value=0.056571452170317171 -0.052366006510332297 -0.033657123072024328 0.055782795541496857 -0.031316032326558101 0.048398705958505303 -0.02757944400595503 0.01436766131489507 -0.047873262221015317 0.043838272461254962 0.061545542601810256 -0.045931943355338484 0.051979246417205173 0.011820052921931098 -0.057042102088831398 0.033771609701078037 -0.047450301721077934 0.051330050405066156 -0.029747806770153852 0.026015544706745553 -0.013719011087151229 -0.056020070387727765 0.029053106845377492 -0.046385679520676112 -0.050888263567657667 0.010795606172854324 0.029461177110011678 -0.04865240907758267 0.022117009450784729 -0.049871194282793407 0.0085163108983796736
leaf_weight=782.01873806118965 680.93256289511919 1395.6902906596661 2317.2448888719082 521.7227930277586 80.291699022054672 532.67369690537453 1323.8205760270357 358.79277921468019 229.81550559401512 353.84684354066849 136.26696177572012 647.1179685741663 353.4643325060606 1219.3911447748542 144.23494483530521 189.13114104419947 51.28528918325901 210.50445333868265 82.554756306111813 187.02469044923782 815.94755806773901 116.69408759474754 134.59074912965298 88.021758578717709 83.529999896883965 41.401332125067711 122.81035086512566 177.57216008752584 69.280622832477093 84.19668510556221
leaf_count=3354 5893 8183 9937 3000 339 3014 5600 2923 977 1528 1028 2726 1479 10945 826 1598 226 1447 479 953 7218 752 1185 674 567 184 975 1057 466 467
internal_value=0 0.0206172 0.0323433 0.0204218 -0.0357906 0.0270882 0.0199076 -0.0113267 0.00323916 0.0293522 -0.010678 0.0244514 0.0377927 -0.0439703 -0.03771 -0.0131183 -0.0287076 0.00173043 -0.0140393 0.000279815 -0.0457346 -0.0381312 -0.0152075 -0.000649417 -0.0208539 -0.0268476 -0.0187158 -0.0108485 0.00359252 -0.0178402
internal_weight=0 8507.31 6873.31 4556.07 5024.56 3992.94 3210.92 1259.03 900.234 2678.25 670.418 2324.4 1000.58 3765.53 2546.14 626.425 1634 437.294 293.059 238.31 1919.72 1103.77 422.837 288.246 171.552 563.124 590.127 467.316 331.049 153.477
internal_count=80000 40184 30822 20885 39816 17701 14347 8232 5309 11333 4332 9805 4205 31584 20639 4350 9362 2752 1926 1179 16289 9071 3178 1993 1241 3184 3993 3018 1990 933
is_linear=0
shrinkage=0.05


Tree=20
num_leaves=31
num_cat=0
split_feature=5 10 10 10 9 10 10 10 9 10 10 10 6 10 10 9 9 10 10 6 9 0 9 9 6 6 10 10 6 9
split_gain=3715.51 1796.94 709.672 522.804 386.803 313.449 522.672 200.384 160.147 134.937 213.918 121.027 104.61 99.4532 128.322 96.3271 88.6334 86.2923 81.1763 59.7605 110.509 55.6237 52.0116 48.4174 48.1422 46.6758 45.822 74.8136 45.307 41.0758
threshold=1.0000000180025095e-35 0.84796722196426455 0.48624279369107543 1.0000000180025095e-35 1.1720184975339509 -1.568660639240955 -1.4817802703929612 0.84796722196426455 0.28013006398160961 0.84796722196426455 0.48624279369107543 0.48624279369107543 0.68126672204320238 -0.79252410101829851 -0.54006083955625683 -0.90920718583712279 0.90976364696914469 -1.568660639240955 -1.568660639240955 0.21783648519578316 1.5026188604750821 0.70907510266359075 1.3786243797727089 0.86542513001669275 1.1358946856699077 0.70941905273120442 1.0000000180025095e-35 -1.4817802703929612 -1.5989463637525958 -0.73593285930031171
decision_type=2 2 2 2 2 2 2 2 2 2 2 2 2 2 2 2 2 2 2 2 2 2 2 2 2 2 2 2 2 2
left_child=1 2 3 5 9 -1 23 11 13 10 17 18 15 -8 -15 -12 -3 -2 -6 -10 24 28 -5 -7 -21 -18 27 -20 -17 -19
right_child=4 16 -4 22 7 6 8 -9 19 -11 12 -13 -14 14 -16 21 25 29 26 20 -22 -23 -24 -25 -26 -27 -28 -29 -30 -31
leaf_value=0.054532644564206471 -0.0042538720536243182 -0.032088479869119134 0.053747104279151428 -0.030280144623021928 0.050202135570741116 -0.032423235327636198 0.0090888876665713141 -0.04486855448024156 0.068413575821277078 -0.053611466899731036 -0.059067025058749827 0.047079336050093387 -0.059856210624763685 0.048745260571494725 0.0058802527745360897 0.12411087546535299 0.049125952475293222 -0.05537242194555532 -0.041671927578493473 0.035493248280435971 0.063745337781593192 0.042203569312382526 0.027855533319620537 0.01297347554260673 0.00086847951286896585 -0.0093570255153792078 -0.046347293479263169 0.012534221283769492 -0.0044336377901399516 -0.039387371525683799
leaf_weight=770.97539654374123 147.92276182770729 1413.1792968064547 2285.5704777091742 512.82248370349407 62.096642300486565 457.56775031983852 1019.6042054891586 221.40683920681477 211.63537107408047 1452.5611351430416 47.69772756844759 166.01865789294243 68.476930357515812 476.9540798664093 275.41842935979366 7.1110561341047278 44.130290195345879 556.45807810127735 89.050234124064445 264.79162789881229 259.54261200129986 131.19803157448769 41.593254670500755 67.383919820189476 161.69298063218594 150.36286169290543 75.433566495776176 223.19492609798908 190.25676222890615 1446.7289000824094
leaf_count=3354 849 8423 9937 3000 254 2694 4327 1807 898 13946 344 684 467 2013 1154 42 183 5074 662 1114 1149 634 184 320 678 756 591 1267 1062 12133
internal_value=0 0.0198101 0.0310412 0.0195598 -0.0350107 0.025918 0.0190122 -0.00407338 0.0279805 -0.0414085 -0.03458 0.0105944 -0.00301317 0.0192643 0.0330538 0.00733181 -0.0277331 -0.0411065 -0.00287272 0.0451864 0.0380209 0.0169709 -0.0259187 -0.026596 0.022366 0.0039127 -0.011374 -0.00292501 0.000197752 -0.0438278
internal_weight=0 8413.23 6805.55 4519.98 4885.61 3965.57 3194.59 837.201 2669.64 4048.41 2595.85 615.794 444.741 1771.98 752.373 376.264 1607.67 2151.11 449.775 897.663 686.027 328.566 554.416 524.952 426.485 194.493 387.679 312.245 197.368 2003.19
internal_count=80000 40184 30822 20885 39816 17701 14347 5265 11333 34551 20605 3458 2549 7494 3167 2082 9362 18056 2774 3839 2941 1738 3184 3014 1792 939 2520 1929 1104 17207
is_linear=0
shrinkage=0.05


Tree=21
num_leaves=31
num_cat=0
split_feature=5 10 10 10 9 10 10 10 10 9 6 9 10 10 10 10 9 6 9 6 9 10 6 9 10 10 0 6 9 0
split_gain=3433.33 1641.58 656.248 476.278 373.986 290.812 474.735 238.398 166.613 149.98 126.802 198.325 118.47 108.068 128.548 105.348 83.4561 78.7533 76.8644 61.8254 145.012 74.5816 66.6391 65.6068 51.4166 84.8933 49.4208 49.0985 47.7622 47.2823
threshold=1.0000000180025095e-35 0.84796722196426455 0.48624279369107543 1.0000000180025095e-35 0.72615976767031476 -1.568660639240955 -1.4817802703929612 0.84796722196426455 0.48624279369107543 1.2851093426307794 0.12253389703439484 -0.12538069654044226 0.84796722196426455 -0.79252410101829851 -0.54006083955625683 -1.568660639240955 1.5353489960552398 -0.38993040063707091 0.39077978279828018 -0.91922558952885891 -0.73593285930031171 0.84796722196426455 -1.2929047827658691 -0.44434765754951261 1.0000000180025095e-35 -1.4817802703929612 0.60739262917838222 1.0406497509519583 1.6059345435461938 0.70907510266359075
decision_type=2 2 2 2 2 2 2 2 2 2 2 2 2 2 2 2 2 2 2 2 2 2 2 2 2 2 2 2 2 2
left_child=1 2 3 5 10 -1 -7 8 15 13 11 19 17 26 -15 -6 29 -13 -19 20 -2 22 -22 -24 25 -17 -8 -27 -5 -3
right_child=4 16 -4 28 7 6 9 -9 -10 -11 -12 12 -14 14 -16 24 -18 18 -20 -21 21 -23 23 -25 -26 27 -28 -29 -30 -31
leaf_value=0.052613728227471172 -0.052157721332367714 -0.034659639210042149 0.051829686633468687 -0.028578006694753768 0.043540940007419447 -0.025669520241299176 0.0060469189225832599 -0.046344496179223517 0.039536936497003225 0.057569595303783062 -0.056172307112481494 0.023134206502206933 -0.045749679596601839 0.048171988927247625 0.010567576517285186 -0.044301725065724204 0.027365974081289005 -0.04405227823983069 0.021146971291120992 -0.054983686642349906 0.027360070482407725 -0.045089610948188724 -0.050220307153581147 0.012510576964549753 -0.047180251375463236 0.021399697169631443 0.02654551078887081 -0.017286693625651255 0.036386666787746817 -0.014862346933313914
leaf_weight=759.43489688634872 594.9754808396101 1098.134944871068 2252.4656116217375 516.02887055277824 81.270498394966125 516.969990208745 889.88839839398861 334.75915609300137 232.47715020179749 342.66760045289993 1143.6701407432556 229.18577110022306 173.77522903680801 632.4591178894043 354.72920575737953 128.31440737843513 68.084498673677444 123.15170329064131 71.419809378683567 766.95008751004934 127.04743390530348 132.70503240823746 88.490224026143551 78.791413031518459 114.99380159378052 178.47627467662096 439.13596193492413 151.74620925635099 29.93355992436409 415.79261407256126
leaf_count=3354 5559 6955 9937 3064 339 3014 3828 2923 977 1528 11069 1379 1581 2726 1479 1028 287 904 429 7302 837 1266 720 538 975 1057 1772 933 120 2120
internal_value=0 0.0190454 0.0298132 0.0187469 -0.0342308 0.0248183 0.0181717 -0.0103909 0.00317396 0.0266958 -0.0424835 -0.0359235 -0.0109834 0.0221282 0.0346595 -0.00973615 -0.026787 0.00327364 -0.0201201 -0.0442538 -0.0362017 -0.0139705 6.02949e-05 -0.0206734 -0.0172856 -0.00978853 0.0128201 0.00362225 -0.0250162 -0.0292224
internal_weight=0 8315.73 6733.71 4481.25 4752.2 3935.29 3175.85 1222.04 887.278 2658.88 3530.16 2386.49 597.533 2316.21 987.188 654.801 1582.01 423.757 194.572 1788.96 1022.01 427.034 294.329 167.282 573.531 458.537 1329.02 330.222 545.962 1513.93
internal_count=80000 40184 30822 20885 39816 17701 14347 8232 5309 11333 31584 20515 4293 9805 4205 4332 9362 2712 1333 16222 8920 3361 2095 1258 3993 3018 5600 1990 3184 9075
is_linear=0
shrinkage=0.05


Tree=22
num_leaves=31
num_cat=0
split_feature=5 10 10 10 9 10 10 10 10 9 6 9 10 10 10 10 9 10 6 6 9 6 9 10 10 10 10 9 10 9
split_gain=3173.87 1500.19 607.688 433.984 359.623 270.177 431.219 261.536 175.282 142.476 131.627 193.256 109.933 93.6284 84.3884 110.629 80.2459 62.0962 59.1926 57.8103 159.197 57.2754 100.918 55.2761 101.951 86.0316 52.4645 45.5774 45.1796 44.5384
threshold=1.0000000180025095e-35 0.84796722196426455 0.48624279369107543 1.0000000180025095e-35 0.47773618987555494 -1.568660639240955 -1.4817802703929612 0.84796722196426455 0.48624279369107543 0.28013006398160961 -0.24303839292529381 -0.32376940994263226 -1.568660639240955 0.84796722196426455 -0.79252410101829851 -0.54006083955625683 0.76608424087067029 0.48624279369107543 0.4107253356234784 -1.3070692311502667 -0.73593285930031171 0.21783648519578316 1.5026188604750821 1.0000000180025095e-35 -0.79252410101829851 -0.54006083955625683 -1.568660639240955 0.86542513001669275 0.84796722196426455 1.3786243797727089
decision_type=2 2 2 2 2 2 2 2 2 2 2 2 2 2 2 2 2 2 2 2 2 2 2 2 2 2 2 2 2 2
left_child=1 2 3 5 10 -1 27 8 12 14 11 19 -6 17 -8 -16 -3 26 -18 20 -2 -11 -23 24 -14 -26 -13 -7 -22 -5
right_child=4 16 -4 29 7 6 9 -9 -10 21 -12 13 23 -15 15 -17 18 -19 -20 -21 28 22 -24 -25 25 -27 -28 -29 -30 -31
leaf_value=0.050800289245725321 -0.048965866193496743 -0.030658763062248285 0.050016516250349363 -0.028310936924670495 0.03842459911547276 -0.030559150229713752 0.0079653387008473929 -0.046944336814470383 0.034307041384704216 0.064863783031249012 -0.055426912834582967 0.058624070367227811 -0.024504886487707669 -0.042467704312786084 0.044970027631129415 0.0050407842958584562 0.061675190115380779 0.041210560446076433 -0.0093366658789558864 -0.052781269342040443 0.027544584025743959 0.019990548774581743 0.060039997649587132 -0.046701327433864237 0.060660435272325744 -0.016370470991257446 -0.013927986759117095 0.013670540685509833 -0.034837021801084556 0.025563883287478179
leaf_weight=747.52277827262878 379.10019342601299 1321.8815973252058 2218.2908108979464 496.0561213940382 95.054192259907722 442.69410891830921 1022.6786953955889 413.38825745880604 274.812908411026 207.47907902300358 1276.272965721786 27.692387387156487 411.07821983098984 144.39178002625704 466.16404257714748 276.28068342804909 34.376143470406532 89.749150454998016 200.54193939268589 822.05497068911791 113.26396740227938 424.70005168020725 249.81954132020473 142.25894209742546 76.595357224345207 68.808379575610161 248.67888121306896 67.069734916090965 39.025427281856537 41.577558249235153
leaf_count=3354 3673 8183 9937 3000 410 2694 4327 3849 1199 898 12644 136 3047 1402 2013 1154 146 413 1033 7913 736 1792 1149 1269 364 460 1922 320 379 184
internal_value=0 0.0183157 0.0286445 0.0179717 -0.0334748 0.0237711 0.0173708 -0.0131735 -0.000109289 0.0254802 -0.0430558 -0.0345852 -0.0120243 -0.00837106 0.0172804 0.0301114 -0.0258733 0.00507608 0.00105467 -0.044473 -0.0316203 0.0418901 0.0348235 -0.0188872 -0.0117767 0.0242076 -0.00665827 -0.0247398 0.0115588 -0.0241446
internal_weight=0 8217.13 6660.33 4442.04 4622.23 3904.41 3156.89 1482 1068.61 2647.12 3140.23 1863.96 793.795 510.512 1765.12 742.445 1556.8 366.12 234.918 1353.44 531.39 881.999 674.52 698.741 556.482 145.404 276.371 509.764 152.289 537.634
internal_count=80000 40184 30822 20885 39816 17701 14347 10598 6749 11333 29218 16574 5550 3873 7494 3167 9362 2471 1179 12701 4788 3839 2941 5140 3871 824 2058 3014 1115 3184
is_linear=0
shrinkage=0.05


Tree=23
num_leaves=31
num_cat=0
split_feature=5 10 10 10 9 10 10 10 10 10 9 10 10 6 10 9 10 9 10 6 9 9 9 6 9 6 6 9 6 9
split_gain=2934.36 1371.19 563.378 395.52 348.467 251.26 391.842 151.208 208.624 147.679 133.277 93.5796 112.619 90.4448 90.0818 84.7277 76.2048 75.1011 52.7693 49.5963 65.8683 45.5359 44.6788 71.5872 50.3868 73.1864 44.6723 97.0825 44.663 104.444
threshold=1.0000000180025095e-35 0.84796722196426455 0.48624279369107543 1.0000000180025095e-35 1.3786243797727089 -1.568660639240955 -1.4817802703929612 0.84796722196426455 0.48624279369107543 0.84796722196426455 1.2851093426307794 -0.79252410101829851 -0.54006083955625683 0.84858173901496559 -1.568660639240955 -0.90920718583712279 0.48624279369107543 0.90976364696914469 1.0000000180025095e-35 -1.541542787252258 -0.56361603251825942 0.44745297237179699 -0.73593285930031171 -0.63268938322911994 0.53523830132725414 0.38452897995302143 0.27321531711134367 1.0000000180025095e-35 -0.74194950368743262 0.034153404263249622
decision_type=2 2 2 2 2 2 2 2 2 2 2 2 2 2 2 2 2 2 2 2 2 2 2 2 2 2 2 2 2 2
left_child=1 2 3 5 7 -1 -7 8 14 16 11 26 -13 15 -2 -10 18 -3 -6 -17 -21 -4 -16 -24 -25 -26 27 -8 -22 -30
right_child=4 17 21 -5 9 6 10 -9 13 -11 -12 12 -14 -15 22 19 -18 -19 -20 20 28 -23 23 24 25 -27 -28 -29 29 -31
leaf_value=0.049080115027297519 -0.0013940162153621358 -0.02916986584639757 0.04321889850889625 -0.023291990990309461 0.010542486025893093 -0.023865240055727065 0.0095294344459816178 -0.052145349175384964 -0.057428787796187014 -0.040653661204787764 0.054003955329117628 0.044775088825354636 0.0094503083275222187 -0.055787840889273792 -0.054049658242254772 0.10018093671752076 0.045886360240680157 0.0042293972344263084 -0.042618974737526488 -0.039979139117622853 0.05456552239504904 0.058565893634065662 -0.018142286089709622 -0.051374947618692261 0.0047125727396410515 -0.044106946660059189 -0.0010317221079351666 0.050608448426978814 -0.052923082897783504 0.029599443597108806
leaf_weight=735.34835311770439 154.63510522246361 1340.3702393770218 1461.1017658412457 529.69618541002274 298.65507279336452 502.27846230566502 683.84923705458641 1325.6066969633102 43.88629674911499 160.49306147545576 330.73569646477699 616.81833431124687 355.76503536105156 64.449602484703064 492.01864596456289 16.762203931808472 139.32563927769661 192.48085321485996 55.327297396957874 51.488020218908787 75.06883430480957 722.25832238793373 384.21259334683418 678.20895340293646 114.77590776979923 231.82791669666767 465.89928232133389 182.13338200747967 50.609456993639469 158.18550240248442
leaf_count=3354 893 8423 6459 3184 1736 3014 2881 14326 355 1427 1528 2726 1479 440 5074 92 564 939 469 346 348 3478 3129 6715 834 1980 1977 742 354 734
internal_value=0 0.0176165 0.0275298 0.0172313 -0.0327362 0.0227737 0.0166082 -0.038479 -0.0312789 0.00100809 0.0243225 0.0200627 0.0318535 -0.000858008 -0.0380929 0.0080819 0.0145623 -0.0249759 0.00223337 0.0162469 0.0120516 0.0482957 -0.0410781 -0.0365485 -0.0434492 -0.0279406 0.0114526 0.0181692 0.0214891 0.00959695
internal_weight=0 8118.74 6585.88 4402.52 4495.54 3872.83 3137.48 3841.74 2516.13 653.801 2635.2 2304.47 972.583 460.45 2055.68 396 493.308 1532.85 353.982 352.114 335.352 2183.36 1901.04 1409.03 1024.81 346.604 1331.88 865.983 283.864 208.795
internal_count=80000 40184 30822 20885 39816 17701 14347 35620 21294 4196 11333 9805 4205 2669 18625 2229 2769 9362 2205 1874 1782 9937 17732 12658 9529 2814 5600 3623 1436 1088
is_linear=0
shrinkage=0.05


Tree=24
num_leaves=31
num_cat=0
split_feature=5 10 10 10 9 10 10 10 10 6 9 9 10 10 9 6 10 10 0 10 10 6 9 6 9 0 6 9 6 9
split_gain=2712.08 1253.47 523.388 360.404 336.061 235.372 233.835 356.09 145.403 132.705 182.868 125.723 99.7251 86.5834 71.6251 105.725 71.1387 95.5934 62.938 56.5491 92.104 56.1218 136.668 55.5931 72.5903 55.3645 52.6908 81.2154 57.219 49.402
threshold=1.0000000180025095e-35 0.84796722196426455 0.48624279369107543 1.0000000180025095e-35 0.46282231455191897 0.84796722196426455 -1.568660639240955 -1.4817802703929612 0.48624279369107543 -0.24303839292529381 -0.37749318519777697 0.28013006398160961 -1.568660639240955 0.84796722196426455 0.20415536592322392 -0.24303839292529381 -0.79252410101829851 -0.54006083955625683 0.70907510266359075 -1.4817802703929612 1.0000000180025095e-35 -1.3070692311502667 -0.73593285930031171 0.84858173901496559 1.3786243797727089 0.65823386592098643 -0.027950170870781606 1.5026188604750821 1.1358946856699077 1.5353489960552398
decision_type=2 2 2 2 2 2 2 2 2 2 2 2 2 2 2 2 2 2 2 2 2 2 2 2 2 2 2 2 2 2
left_child=1 2 3 6 9 8 -1 -8 12 10 21 16 -6 18 -3 -16 -9 -18 -12 -14 23 22 -2 25 -25 -21 -13 28 -28 -17
right_child=4 14 -4 -5 5 -7 7 11 -10 -11 13 26 19 -15 15 29 17 -19 -20 20 -22 -23 -24 24 -26 -27 27 -29 -30 -31
leaf_value=0.04744281180733087 -0.047756581006545507 -0.031179551842057979 0.046675050945063662 -0.022420630262203107 0.036339698376546617 -0.04557575347295801 -0.022986374359233411 0.0070485867067988138 0.030772674987948379 -0.054890926449227495 -0.0110630838814585 0.068608482818654129 -0.04438046706534126 -0.041276293210710642 0.094409952454465873 -0.0206046935449654 0.041564685703694197 0.0043038522238753379 0.031060879638200978 0.0025522249661140799 -0.045620592620128964 -0.05297328368322566 0.010390558912846426 -0.053653633333912536 0.0075224153494863992 0.059656541599229687 0.033890391488019804 0.05705226639707528 -0.002457400537959818 0.025801242144200556
leaf_weight=723.00656938552856 351.53036253899336 1061.0515307039022 2147.1842340677977 522.94366708397865 96.678121939301491 390.44437581300735 495.58233493566513 1025.4190990328789 279.57837834954262 1161.6224774941802 265.24043257534504 126.79854163527489 155.86119814217091 152.55737988650799 24.148943245410919 356.57206515967846 454.63951334357262 277.01325640082359 133.20635478943586 129.04497531801462 136.19000410288572 713.56934718042612 141.82195320725441 79.0174395814538 125.51459556818008 63.24990014731884 329.07424904406071 247.75562657415867 161.3683345168829 68.342674165964127
leaf_count=3354 3673 6820 9937 3184 415 3913 3014 4327 1215 12495 1949 562 1367 1602 122 2133 2013 1154 832 848 1294 7442 1054 640 712 365 1411 1188 678 287
internal_value=0 0.0169464 0.0264657 0.0165213 -0.0319927 -0.012367 0.0218236 0.0158824 -0.000193788 -0.0417773 -0.0331119 0.0232287 -0.0112147 -0.00924471 -0.0240955 -0.00735716 0.0155468 0.0274572 0.00301955 -0.0178886 -0.010142 -0.0440082 -0.0310413 0.00203419 -0.0161119 0.0213351 0.038833 0.0337185 0.021931 -0.0131408
internal_weight=0 8020.9 6510.79 4363.6 4375.13 1455.58 3840.66 3117.65 1065.13 2919.55 1757.93 2622.07 785.556 551.004 1510.12 449.064 1757.07 731.653 398.447 688.878 533.017 1206.92 493.352 396.827 204.532 192.295 864.997 738.198 490.443 424.915
internal_count=80000 40184 30822 20885 39816 10769 17701 14347 6856 29047 16552 11333 5641 4383 9362 2542 7494 3167 2781 5226 3859 12169 4727 2565 1352 1213 3839 3277 2089 2420
is_linear=0
shrinkage=0.05


Tree=25
num_leaves=31
num_cat=0
split_feature=10 10 10 10 10 10 10 9 9 0 0 9 6 9 6 9 6 6 9 9 6 0 9 9 9 9 9 9 6 0
split_gain=1909.47 1085.76 625.651 451.446 655.598 222.488 249.32 91.8362 75.3396 67.7724 61.1401 55.4547 52.6996 47.1249 46.4136 45.7613 44.1614 37.6165 79.453 29.9055 29.2315 27.9571 29.5737 26.6113 26.1765 25.8696 25.5686 25.4798 45.2012 22.984
threshold=0.84796722196426455 0.48624279369107543 -1.568660639240955 -1.4817802703929612 1.0000000180025095e-35 -0.79252410101829851 -0.54006083955625683 1.6059345435461938 1.5699130459975243 0.70907510266359075 0.70907510266359075 -0.88587713555803715 0.66887672709891299 0.30651076917738085 -0.63268938322911994 0.20415536592322392 -0.24303839292529381 0.65505416941873562 0.022946741878313751 0.15376581192878261 -0.89101189359545729 0.70907510266359075 0.10884255522771903 1.6059345435461938 1.6878868386702173 -0.39177343801251763 0.86542513001669275 -0.52477624691814129 0.12253389703439484 0.8107575761487994
decision_type=2 2 2 2 2 2 2 2 2 2 2 2 2 2 2 2 2 2 2 2 2 2 2 2 2 2 2 2 2 2
left_child=1 2 19 26 5 7 11 10 9 12 17 -7 13 14 25 -2 -17 18 -5 20 -1 -8 -23 -6 -18 -3 -4 -12 -29 -13
right_child=15 8 3 4 23 6 21 -9 -10 -11 27 29 -14 -15 -16 16 24 -19 -20 -21 -22 22 -24 -25 -26 -27 -28 28 -30 -31
leaf_value=0.044484365969780088 -0.040436338031954157 0.029929265550649526 -0.040401511587889627 -0.012655746562371657 -0.03777886238803739 0.012173426741143731 -0.0079517077090481576 0.033207308098103537 0.058662067764749797 0.04528674039938238 -0.0032793000541132956 0.040768419524527734 0.010117108266939089 0.051039997676321558 0.013566122688876218 0.011338939949620867 -0.034003457145683168 -0.022589985063767179 0.018215711038135012 0.048112102785571549 0.019970821365613216 -0.00032974535826644168 0.041177751646283067 -0.0056536787233849931 -0.010782885559156305 0.055010767127266352 -0.019161276385563378 0.036114294472732116 0.0017333587863472139 0.05937002325386246
leaf_weight=205.01628640294075 1934.0219243690372 376.52910190820694 836.37193514406681 750.61072685569525 941.6827617585659 136.1563037186861 399.40216677635908 188.82038313150406 359.26965153217316 855.61019892245531 228.50850021094084 508.76057239621878 333.43889807164669 268.36216160655022 368.66551110893488 69.738936319947243 710.46979639679193 373.20957754552364 288.53431891649961 411.34910534322262 298.93956166505814 110.82026774436235 70.032249927520752 69.200810812413692 146.37289981544018 141.41990442574024 170.58479662239552 179.53615698963404 204.48092124611139 246.52692829817533
leaf_count=1017 17473 1839 7198 4565 7958 674 2263 991 1760 4178 1295 2547 1612 1306 1794 564 5977 2232 1560 1972 1468 625 354 470 1101 681 1215 937 1160 1214
internal_value=0 0.0106406 -0.000265041 -0.00642357 9.03199e-05 0.0098744 0.0249416 -0.000142454 0.0373411 0.0340733 -0.00325232 0.0415451 0.0276273 0.0326824 0.0271259 -0.0360591 -0.0269226 -0.00897401 -0.00408382 0.0381086 0.0299433 -0.000566477 0.0157434 -0.0355797 -0.0300367 0.0367775 -0.0368033 0.00994067 0.0178072 0.04684
internal_weight=0 9321.84 6618.54 5703.24 4696.28 3685.4 1471.7 2213.7 2703.3 2344.03 2024.88 891.444 1488.42 1154.98 886.615 2860.6 926.582 1412.35 1039.15 915.305 503.956 580.255 180.853 1010.88 856.843 517.949 1006.96 612.526 384.017 755.288
internal_count=80000 54885 41715 37258 28845 20417 7677 12740 13170 11410 11749 4435 7232 5620 4314 25115 7642 8357 6125 4457 2485 3242 979 8428 7078 2520 8413 3392 2097 3761
is_linear=0
shrinkage=0.05


Tree=26
num_leaves=31
num_cat=0
split_feature=5 10 10 10 10 10 10 10 10 0 10 10 10 10 0 0 10 10 0 0 0 10 0 10 1 1 0 0 1 1
split_gain=2463.08 1043.27 442.942 298.051 265.391 274.114 198.466 292.37 142.593 90.7967 66.3112 115.89 72.2488 109.945 55.4084 54.3413 52.3948 71.3933 30.2871 26.9633 26.0271 24.7822 23.7016 23.6457 23.3955 22.3848 20.7698 20.0515 18.7286 17.7739
threshold=1.0000000180025095e-35 0.84796722196426455 0.48624279369107543 1.0000000180025095e-35 0.84796722196426455 0.48624279369107543 -1.568660639240955 -1.4817802703929612 -1.568660639240955 0.70907510266359075 -1.4817802703929612 1.0000000180025095e-35 -0.79252410101829851 -0.54006083955625683 0.70907510266359075 0.70907510266359075 -0.79252410101829851 -0.54006083955625683 0.70907510266359075 0.70907510266359075 0.70907510266359075 -0.79252410101829851 0.70907510266359075 -0.54006083955625683 0.085473072434714359 0.085473072434714359 0.75991633940619507 0.75991633940619507 0.085473072434714359 0.085473072434714359
decision_type=2 2 2 2 2 2 2 2 2 2 2 2 2 2 2 2 2 2 2 2 2 2 2 2 2 2 2 2 2 2
left_child=1 2 3 6 5 8 -1 22 19 16 -10 12 26 27 24 28 25 -18 29 -2 -5 -11 -8 -23 -7 -9 -12 -14 -3 -4
right_child=4 15 18 20 -6 14 7 9 10 21 11 -13 13 -15 -16 -17 17 -19 -20 -21 -22 23 -24 -25 -26 -27 -28 -29 -30 -31
leaf_value=0.044682733359118217 -0.0046981894206765892 -0.033771270347025706 0.033496737922193029 -0.026858848195865127 -0.04959648896378735 -0.018642097199231933 -0.027626851438892309 0.0013437507323910667 -0.050286756466676463 0.027640626853871909 -0.035013493977001542 -0.049835067604976802 0.013037792954177769 -0.029914631566308358 0.026319396216522968 -0.0063049465790316131 0.037825800675399535 0.0055633874506426859 0.052133652504329192 0.032746188370912074 -0.00081585386743927694 0.054212993314385442 -0.0027612937657287085 0.02761610004488714 0.0068915076177510724 0.015996244090228113 -0.016457314151894879 0.047771127065769921 -0.020319362877375218 0.044994589175696625
leaf_weight=700.04534608125687 131.37604729831219 591.728909522295 643.28165589272976 376.78531880676746 1334.6096249595284 165.54500231146812 345.77101075649261 549.95879206061363 503.35751515626907 443.3920451849699 505.16048144549131 480.91839212179184 117.39933785051107 178.53811041265726 236.61624068766832 403.50695040822029 457.46141581237316 274.29291763901711 733.03102988004684 75.825680285692215 128.70795005559921 245.05410808324814 132.58094483613968 126.80970549583435 195.84012534469366 495.50780676305294 214.9690695181489 64.316062457859516 459.81218220293522 703.91475768387318
leaf_count=3354 722 4146 2976 2459 15753 989 2269 2410 5399 1822 4636 5244 764 1568 1166 2181 2127 1156 3628 381 725 1190 745 518 1078 2110 1762 354 3035 3333
internal_value=0 0.0162884 0.0250307 0.0158251 -0.0311756 -0.0226091 0.0206581 0.0151813 -0.0305371 0.0218084 -0.0345054 -0.0294176 -0.020329 -0.00204807 0.00751022 -0.0219035 0.0154708 0.0257325 0.0439547 0.00900462 -0.0202278 0.0356241 -0.0207351 0.0451432 -0.00480505 0.00828842 -0.0294742 0.0253313 -0.0278891 0.0395044
internal_weight=0 7811.64 6356.59 4276.37 4204.47 2869.86 3770.87 3070.83 2271.86 2592.48 2064.66 1561.3 1080.38 360.254 598.001 1455.05 1777.22 731.754 2080.23 207.202 505.493 815.256 478.352 371.864 361.385 1045.47 720.13 181.715 1051.54 1347.2
internal_count=80000 40184 30822 20885 39816 24063 17701 14347 20830 11333 19727 14328 9084 2686 3233 9362 7803 3283 9937 1103 3184 3530 3014 1708 2067 4520 6398 1118 7181 6309
is_linear=0
shrinkage=0.05


Tree=27
num_leaves=31
num_cat=0
split_feature=10 10 10 10 10 10 10 9 9 6 9 0 6 9 9 6 9 9 6 6 6 6 9 6 9 6 9 9 9 1
split_gain=1631.3 906.163 522.3 390.332 557.922 184.511 208.719 87.3401 74.8949 59.6268 71.4237 59.3559 57.4123 92.0473 51.9995 49.1495 46.8316 45.7337 43.5785 42.513 34.0028 33.6501 29.6487 44.3016 29.3105 27.4687 26.4824 26.2875 26.2329 25.4937
threshold=0.84796722196426455 0.48624279369107543 -1.568660639240955 -1.4817802703929612 1.0000000180025095e-35 -0.79252410101829851 -0.54006083955625683 0.15376581192878261 1.5699130459975243 0.61738342875773622 1.7725031283937984 0.70907510266359075 -0.61930967726648911 -0.51766160441423659 -0.88587713555803715 0.66887672709891299 0.20415536592322392 0.30651076917738085 -0.51155444665655281 -0.24303839292529381 -1.0457217275196602 -1.3199022320688079 0.72615976767031476 0.12253389703439484 0.15376581192878261 -0.89101189359545729 1.6059345435461938 1.3786243797727089 1.6878868386702173 0.085473072434714359
decision_type=2 2 2 2 2 2 2 2 2 2 2 2 2 2 2 2 2 2 2 2 2 2 2 2 2 2 2 2 2 2
left_child=1 2 24 27 5 7 14 12 11 22 -11 15 13 21 -7 17 -2 18 -3 -18 -15 -5 23 -9 25 -1 -6 -4 -21 -8
right_child=16 8 3 4 26 6 29 9 -10 10 -12 -13 -14 20 -16 -17 19 -19 -20 28 -22 -23 -24 -25 -26 -27 -28 -29 -30 -31
leaf_value=0.041331318359137351 -0.038880413775417864 0.032992960882083713 -0.037729176470010069 0.0043093616041351059 -0.036083363647282915 0.0096538921660022266 -0.010415699635905553 0.032171154111238096 0.056165798369445998 -0.01105535626784729 0.032510861196303732 0.041886562442278424 -0.018024858870649346 0.058635066139706871 0.043437764352225884 0.0081693008763527915 0.013011885046264099 0.048458410381232719 0.0097158186712434091 -0.032140221579580637 0.015041883764760547 -0.022166375595732878 0.04468336700066905 -0.016433446183329925 0.045248464766823808 0.017337019327681988 -0.0036276004795515724 -0.0095416285482785666 -0.0084910839832387699 0.010658728403129893
leaf_weight=200.43180255591869 1830.3313603624701 558.39459903538227 864.72417423129082 237.44015646725893 894.15542052686214 134.61907984316349 305.64156595617533 138.14121352136135 346.55147849023342 342.53564304113388 129.69832803308964 832.6897704526782 693.10110787302256 73.946275062859058 740.00882349908352 329.57611507922411 68.313808545470238 261.23368015885353 314.22061727941036 677.01575467735529 113.22352964431047 242.67048304527998 152.21090932935476 70.966134212911129 400.23823899030685 294.59310428798199 67.603017210960388 91.461576618254185 141.82671142369509 270.51193685084581
leaf_count=1017 17473 2766 7760 1416 7958 674 1727 724 1760 1956 688 4178 4255 393 3761 1612 564 1306 1548 5977 634 1469 789 416 1972 1468 470 653 1101 1515
internal_value=0 0.00983532 -0.000257515 -0.00596201 7.23697e-05 0.00901106 0.0228455 -0.000137209 0.0344993 0.0126075 0.000910038 0.0312292 -0.00794631 0.00252222 0.0382379 0.0251652 -0.0343107 0.0301054 0.0246111 -0.0248827 0.0322645 -0.00907272 0.0278957 0.0156759 0.035187 0.0270521 -0.033802 -0.035033 -0.0280441 -0.000520968
internal_weight=0 9100.59 6457.92 5562.66 4606.47 3644.72 1450.78 2193.93 2642.67 833.552 472.234 2296.11 1360.38 667.28 874.628 1463.43 2717.49 1133.85 872.615 887.156 187.17 480.111 361.318 209.107 895.263 495.025 961.758 956.186 818.842 576.154
internal_count=80000 54885 41715 37258 28845 20417 7677 12740 13170 4573 2644 11410 8167 3912 4435 7232 25115 5620 4314 7642 1027 2885 1929 1140 4457 2485 8428 8413 7078 3242
is_linear=0
shrinkage=0.05


Tree=28
num_leaves=31
num_cat=0
split_feature=10 10 10 10 10 10 10 9 9 6 9 6 6 9 9 6 9 9 9 6 6 9 6 9 9 9 6 9 6 6
split_gain=1505.53 826.159 476.167 362.515 513.964 167.687 190.883 78.9675 71.5472 53.1758 96.0659 52.2057 50.8014 54.3414 49.0547 51.6529 47.9216 45.691 45.0915 39.4328 34.6901 27.5539 25.6397 25.6222 25.2405 24.8808 24.8204 24.5608 28.2847 25.4394
threshold=0.84796722196426455 0.48624279369107543 -1.568660639240955 -1.4817802703929612 1.0000000180025095e-35 -0.79252410101829851 -0.54006083955625683 0.53523830132725414 1.5699130459975243 -0.33691252543556077 -0.17824589592064485 1.1506217661031708 0.61738342875773622 1.7725031283937984 0.44745297237179699 -0.60790480420357174 -0.88587713555803715 0.20415536592322392 -0.5056642460063171 -0.24303839292529381 -1.0457217275196602 0.15376581192878261 -0.55262693330133827 0.86542513001669275 1.6059345435461938 1.6878868386702173 0.89286305435202951 0.86542513001669275 1.1358946856699077 -0.33691252543556077
decision_type=2 2 2 2 2 2 2 2 2 2 2 2 2 2 2 2 2 2 2 2 2 2 2 2 2 2 2 2 2 2
